#mdl#2#3992
#rdr#321/319/0
10:u0:%x[0,0],
10:u1:%x[0,1],
10:u2:%x[0,2],
10:u3:%x[0,3],
10:u4:%x[0,4],
10:u5:%x[0,5],
10:u6:%x[0,6],
10:u7:%x[0,7],
10:u8:%x[0,8],
10:u9:%x[0,9],
12:u10:%x[0,10],
12:u11:%x[0,11],
12:u12:%x[0,12],
12:u13:%x[0,13],
12:u14:%x[0,14],
12:u15:%x[0,15],
12:u16:%x[0,16],
12:u17:%x[0,17],
12:u18:%x[0,18],
12:u19:%x[0,19],
12:u20:%x[0,20],
12:u21:%x[0,21],
12:u22:%x[0,22],
12:u23:%x[0,23],
12:u24:%x[0,24],
12:u25:%x[0,25],
12:u26:%x[0,26],
12:u27:%x[0,27],
12:u28:%x[0,28],
12:u29:%x[0,29],
12:u30:%x[0,30],
12:u31:%x[0,31],
12:u32:%x[0,32],
12:u33:%x[0,33],
12:u34:%x[0,34],
12:u35:%x[0,35],
12:u36:%x[0,36],
12:u37:%x[0,37],
12:u38:%x[0,38],
12:u39:%x[0,39],
12:u40:%x[0,40],
12:u41:%x[0,41],
12:u42:%x[0,42],
12:u43:%x[0,43],
12:u44:%x[0,44],
12:u45:%x[0,45],
12:u46:%x[0,46],
12:u47:%x[0,47],
12:u48:%x[0,48],
12:u49:%x[0,49],
12:u50:%x[0,50],
12:u51:%x[0,51],
12:u52:%x[0,52],
12:u53:%x[0,53],
12:u54:%x[0,54],
12:u55:%x[0,55],
12:u56:%x[0,56],
12:u57:%x[0,57],
12:u58:%x[0,58],
12:u59:%x[0,59],
12:u60:%x[0,60],
12:u61:%x[0,61],
12:u62:%x[0,62],
12:u63:%x[0,63],
12:u64:%x[0,64],
12:u65:%x[0,65],
12:u66:%x[0,66],
12:u67:%x[0,67],
12:u68:%x[0,68],
12:u69:%x[0,69],
12:u70:%x[0,70],
12:u71:%x[0,71],
12:u72:%x[0,72],
12:u73:%x[0,73],
12:u74:%x[0,74],
12:u75:%x[0,75],
12:u76:%x[0,76],
12:u77:%x[0,77],
12:u78:%x[0,78],
12:u79:%x[0,79],
12:u80:%x[0,80],
12:u81:%x[0,81],
12:u82:%x[0,82],
12:u83:%x[0,83],
12:u84:%x[0,84],
12:u85:%x[0,85],
12:u86:%x[0,86],
12:u87:%x[0,87],
12:u88:%x[0,88],
12:u89:%x[0,89],
12:u90:%x[0,90],
12:u91:%x[0,91],
12:u92:%x[0,92],
12:u93:%x[0,93],
12:u94:%x[0,94],
12:u95:%x[0,95],
12:u96:%x[0,96],
12:u97:%x[0,97],
12:u98:%x[0,98],
12:u99:%x[0,99],
14:u100:%x[0,100],
14:u101:%x[0,101],
14:u102:%x[0,102],
14:u103:%x[0,103],
14:u104:%x[0,104],
14:u105:%x[0,105],
14:u106:%x[0,106],
14:u107:%x[0,107],
14:u108:%x[0,108],
14:u109:%x[0,109],
14:u110:%x[0,110],
14:u111:%x[0,111],
14:u112:%x[0,112],
14:u113:%x[0,113],
14:u114:%x[0,114],
14:u115:%x[0,115],
14:u116:%x[0,116],
14:u117:%x[0,117],
14:u118:%x[0,118],
14:u119:%x[0,119],
14:u120:%x[0,120],
14:u121:%x[0,121],
14:u122:%x[0,122],
14:u123:%x[0,123],
14:u124:%x[0,124],
14:u125:%x[0,125],
14:u126:%x[0,126],
14:u127:%x[0,127],
14:u128:%x[0,128],
14:u129:%x[0,129],
14:u130:%x[0,130],
14:u131:%x[0,131],
14:u132:%x[0,132],
14:u133:%x[0,133],
14:u134:%x[0,134],
14:u135:%x[0,135],
14:u136:%x[0,136],
14:u137:%x[0,137],
14:u138:%x[0,138],
14:u139:%x[0,139],
14:u140:%x[0,140],
14:u141:%x[0,141],
14:u142:%x[0,142],
14:u143:%x[0,143],
14:u144:%x[0,144],
14:u145:%x[0,145],
14:u146:%x[0,146],
14:u147:%x[0,147],
14:u148:%x[0,148],
14:u149:%x[0,149],
14:u150:%x[0,150],
14:u151:%x[0,151],
14:u152:%x[0,152],
14:u153:%x[0,153],
14:u154:%x[0,154],
14:u155:%x[0,155],
14:u156:%x[0,156],
14:u157:%x[0,157],
14:u158:%x[0,158],
14:u159:%x[0,159],
14:u160:%x[0,160],
14:u161:%x[0,161],
14:u162:%x[0,162],
14:u163:%x[0,163],
14:u164:%x[0,164],
14:u165:%x[0,165],
14:u166:%x[0,166],
14:u167:%x[0,167],
14:u168:%x[0,168],
14:u169:%x[0,169],
14:u170:%x[0,170],
14:u171:%x[0,171],
14:u172:%x[0,172],
14:u173:%x[0,173],
14:u174:%x[0,174],
14:u175:%x[0,175],
14:u176:%x[0,176],
14:u177:%x[0,177],
14:u178:%x[0,178],
14:u179:%x[0,179],
14:u180:%x[0,180],
14:u181:%x[0,181],
14:u182:%x[0,182],
14:u183:%x[0,183],
14:u184:%x[0,184],
14:u185:%x[0,185],
14:u186:%x[0,186],
14:u187:%x[0,187],
14:u188:%x[0,188],
14:u189:%x[0,189],
14:u190:%x[0,190],
14:u191:%x[0,191],
14:u192:%x[0,192],
14:u193:%x[0,193],
14:u194:%x[0,194],
14:u195:%x[0,195],
14:u196:%x[0,196],
14:u197:%x[0,197],
14:u198:%x[0,198],
14:u199:%x[0,199],
14:u200:%x[0,200],
14:u201:%x[0,201],
14:u202:%x[0,202],
14:u203:%x[0,203],
14:u204:%x[0,204],
14:u205:%x[0,205],
14:u206:%x[0,206],
14:u207:%x[0,207],
14:u208:%x[0,208],
14:u209:%x[0,209],
14:u210:%x[0,210],
14:u211:%x[0,211],
14:u212:%x[0,212],
14:u213:%x[0,213],
14:u214:%x[0,214],
14:u215:%x[0,215],
14:u216:%x[0,216],
14:u217:%x[0,217],
14:u218:%x[0,218],
14:u219:%x[0,219],
14:u220:%x[0,220],
14:u221:%x[0,221],
14:u222:%x[0,222],
14:u223:%x[0,223],
14:u224:%x[0,224],
14:u225:%x[0,225],
14:u226:%x[0,226],
14:u227:%x[0,227],
14:u228:%x[0,228],
14:u229:%x[0,229],
14:u230:%x[0,230],
14:u231:%x[0,231],
14:u232:%x[0,232],
14:u233:%x[0,233],
14:u234:%x[0,234],
14:u235:%x[0,235],
14:u236:%x[0,236],
14:u237:%x[0,237],
14:u238:%x[0,238],
14:u239:%x[0,239],
14:u240:%x[0,240],
14:u241:%x[0,241],
14:u242:%x[0,242],
14:u243:%x[0,243],
14:u244:%x[0,244],
14:u245:%x[0,245],
14:u246:%x[0,246],
14:u247:%x[0,247],
14:u248:%x[0,248],
14:u249:%x[0,249],
14:u250:%x[0,250],
14:u251:%x[0,251],
14:u252:%x[0,252],
14:u253:%x[0,253],
14:u254:%x[0,254],
14:u255:%x[0,255],
14:u256:%x[0,256],
14:u257:%x[0,257],
14:u258:%x[0,258],
14:u259:%x[0,259],
14:u260:%x[0,260],
14:u261:%x[0,261],
14:u262:%x[0,262],
14:u263:%x[0,263],
14:u264:%x[0,264],
14:u265:%x[0,265],
14:u266:%x[0,266],
14:u267:%x[0,267],
14:u268:%x[0,268],
14:u269:%x[0,269],
14:u270:%x[0,270],
14:u271:%x[0,271],
14:u272:%x[0,272],
14:u273:%x[0,273],
14:u274:%x[0,274],
14:u275:%x[0,275],
14:u276:%x[0,276],
14:u277:%x[0,277],
14:u278:%x[0,278],
14:u279:%x[0,279],
14:u280:%x[0,280],
14:u281:%x[0,281],
14:u282:%x[0,282],
14:u283:%x[0,283],
14:u284:%x[0,284],
14:u285:%x[0,285],
14:u286:%x[0,286],
14:u287:%x[0,287],
14:u288:%x[0,288],
14:u289:%x[0,289],
14:u290:%x[0,290],
14:u291:%x[0,291],
14:u292:%x[0,292],
14:u293:%x[0,293],
14:u294:%x[0,294],
14:u295:%x[0,295],
14:u296:%x[0,296],
14:u297:%x[0,297],
14:u298:%x[0,298],
14:u299:%x[0,299],
14:u300:%x[0,300],
14:u301:%x[0,301],
14:u302:%x[0,302],
14:u303:%x[0,303],
14:u304:%x[0,304],
14:u305:%x[0,305],
14:u306:%x[0,306],
14:u307:%x[0,307],
14:u308:%x[0,308],
14:u309:%x[0,309],
14:u310:%x[0,310],
14:u311:%x[0,311],
14:u312:%x[0,312],
14:u313:%x[0,313],
14:u314:%x[0,314],
14:u315:%x[0,315],
14:u316:%x[0,316],
14:u317:%x[0,317],
14:u318:%x[0,318],
14:u319:%x[0,319],
1:b,
#qrk#10
1:t,
1:h,
1:e,
1:o,
1:d,
1:r,
1:i,
1:s,
1:n,
1:a,
#qrk#641
4:u0:1,
4:u1:0,
4:u2:0,
4:u3:0,
4:u4:1,
4:u5:1,
4:u6:1,
4:u7:1,
4:u8:0,
4:u9:1,
5:u10:0,
5:u11:1,
5:u12:1,
5:u13:1,
5:u14:1,
5:u15:0,
5:u16:1,
5:u17:1,
5:u18:1,
5:u19:1,
5:u20:1,
5:u21:0,
5:u22:0,
5:u23:0,
5:u24:1,
5:u25:1,
5:u26:1,
5:u27:1,
5:u28:1,
5:u29:1,
5:u30:1,
5:u31:1,
5:u32:1,
5:u33:1,
5:u34:1,
5:u35:1,
5:u36:1,
5:u37:1,
5:u38:1,
5:u39:1,
5:u40:0,
5:u41:0,
5:u42:0,
5:u43:0,
5:u44:0,
5:u45:0,
5:u46:0,
5:u47:0,
5:u48:0,
5:u49:1,
5:u50:0,
5:u51:0,
5:u52:0,
5:u53:0,
5:u54:1,
5:u55:0,
5:u56:0,
5:u57:1,
5:u58:1,
5:u59:1,
5:u60:0,
5:u61:0,
5:u62:0,
5:u63:0,
5:u64:0,
5:u65:0,
5:u66:1,
5:u67:0,
5:u68:0,
5:u69:0,
5:u70:0,
5:u71:0,
5:u72:1,
5:u73:1,
5:u74:0,
5:u75:0,
5:u76:0,
5:u77:0,
5:u78:1,
5:u79:1,
5:u80:0,
5:u81:0,
5:u82:1,
5:u83:0,
5:u84:1,
5:u85:0,
5:u86:0,
5:u87:0,
5:u88:0,
5:u89:0,
5:u90:0,
5:u91:0,
5:u92:1,
5:u93:0,
5:u94:0,
5:u95:0,
5:u96:1,
5:u97:0,
5:u98:0,
5:u99:0,
6:u100:0,
6:u101:0,
6:u102:0,
6:u103:0,
6:u104:0,
6:u105:0,
6:u106:1,
6:u107:0,
6:u108:0,
6:u109:0,
6:u110:0,
6:u111:0,
6:u112:0,
6:u113:1,
6:u114:0,
6:u115:0,
6:u116:0,
6:u117:0,
6:u118:0,
6:u119:0,
6:u120:1,
6:u121:0,
6:u122:0,
6:u123:0,
6:u124:1,
6:u125:0,
6:u126:0,
6:u127:1,
6:u128:0,
6:u129:0,
6:u130:0,
6:u131:1,
6:u132:0,
6:u133:0,
6:u134:0,
6:u135:0,
6:u136:0,
6:u137:0,
6:u138:0,
6:u139:0,
6:u140:1,
6:u141:0,
6:u142:0,
6:u143:0,
6:u144:0,
6:u145:0,
6:u146:0,
6:u147:0,
6:u148:0,
6:u149:0,
6:u150:0,
6:u151:0,
6:u152:0,
6:u153:0,
6:u154:0,
6:u155:0,
6:u156:0,
6:u157:0,
6:u158:0,
6:u159:0,
6:u160:0,
6:u161:1,
6:u162:0,
6:u163:0,
6:u164:0,
6:u165:0,
6:u166:0,
6:u167:1,
6:u168:1,
6:u169:1,
6:u170:1,
6:u171:0,
6:u172:1,
6:u173:0,
6:u174:0,
6:u175:0,
6:u176:0,
6:u177:1,
6:u178:0,
6:u179:0,
6:u180:0,
6:u181:0,
6:u182:0,
6:u183:0,
6:u184:1,
6:u185:1,
6:u186:1,
6:u187:1,
6:u188:1,
6:u189:1,
6:u190:1,
6:u191:1,
6:u192:0,
6:u193:0,
6:u194:1,
6:u195:1,
6:u196:0,
6:u197:0,
6:u198:0,
6:u199:0,
6:u200:0,
6:u201:0,
6:u202:0,
6:u203:0,
6:u204:1,
6:u205:1,
6:u206:1,
6:u207:1,
6:u208:1,
6:u209:1,
6:u210:1,
6:u211:1,
6:u212:1,
6:u213:1,
6:u214:1,
6:u215:1,
6:u216:0,
6:u217:0,
6:u218:0,
6:u219:0,
6:u220:1,
6:u221:0,
6:u222:0,
6:u223:0,
6:u224:1,
6:u225:1,
6:u226:1,
6:u227:1,
6:u228:1,
6:u229:0,
6:u230:1,
6:u231:1,
6:u232:0,
6:u233:1,
6:u234:1,
6:u235:1,
6:u236:1,
6:u237:1,
6:u238:1,
6:u239:0,
6:u240:0,
6:u241:0,
6:u242:0,
6:u243:1,
6:u244:1,
6:u245:1,
6:u246:1,
6:u247:1,
6:u248:1,
6:u249:1,
6:u250:1,
6:u251:1,
6:u252:1,
6:u253:0,
6:u254:1,
6:u255:1,
6:u256:1,
6:u257:1,
6:u258:1,
6:u259:1,
6:u260:1,
6:u261:1,
6:u262:0,
6:u263:1,
6:u264:1,
6:u265:1,
6:u266:1,
6:u267:1,
6:u268:1,
6:u269:1,
6:u270:1,
6:u271:1,
6:u272:1,
6:u273:1,
6:u274:1,
6:u275:1,
6:u276:1,
6:u277:1,
6:u278:1,
6:u279:0,
6:u280:1,
6:u281:0,
6:u282:0,
6:u283:1,
6:u284:0,
6:u285:1,
6:u286:0,
6:u287:1,
6:u288:1,
6:u289:1,
6:u290:1,
6:u291:1,
6:u292:1,
6:u293:1,
6:u294:1,
6:u295:1,
6:u296:1,
6:u297:1,
6:u298:1,
6:u299:1,
6:u300:0,
6:u301:0,
6:u302:0,
6:u303:1,
6:u304:1,
6:u305:1,
6:u306:1,
6:u307:1,
6:u308:1,
6:u309:0,
6:u310:1,
6:u311:1,
6:u312:1,
6:u313:0,
6:u314:1,
6:u315:1,
6:u316:1,
6:u317:1,
6:u318:0,
6:u319:1,
1:b,
4:u0:0,
4:u2:1,
4:u4:0,
4:u5:0,
4:u6:0,
4:u7:0,
4:u8:1,
4:u9:0,
5:u10:1,
5:u15:1,
5:u19:0,
5:u22:1,
5:u24:0,
5:u25:0,
5:u27:0,
5:u28:0,
5:u29:0,
5:u30:0,
5:u31:0,
5:u38:0,
5:u40:1,
5:u43:1,
5:u44:1,
5:u47:1,
5:u49:0,
5:u51:1,
5:u52:1,
5:u54:0,
5:u56:1,
5:u59:0,
5:u61:1,
5:u62:1,
5:u63:1,
5:u64:1,
5:u65:1,
5:u67:1,
5:u72:0,
5:u73:0,
5:u75:1,
5:u78:0,
5:u80:1,
5:u81:1,
5:u83:1,
5:u86:1,
5:u87:1,
5:u88:1,
5:u89:1,
5:u91:1,
5:u92:0,
5:u95:1,
5:u99:1,
6:u100:1,
6:u101:1,
6:u102:1,
6:u103:1,
6:u104:1,
6:u107:1,
6:u113:0,
6:u116:1,
6:u121:1,
6:u123:1,
6:u126:1,
6:u128:1,
6:u131:0,
6:u134:1,
6:u136:1,
6:u137:1,
6:u139:1,
6:u142:1,
6:u143:1,
6:u144:1,
6:u145:1,
6:u146:1,
6:u147:1,
6:u148:1,
6:u150:1,
6:u153:1,
6:u154:1,
6:u155:1,
6:u156:1,
6:u157:1,
6:u161:0,
6:u166:1,
6:u169:0,
6:u170:0,
6:u172:0,
6:u173:1,
6:u174:1,
6:u175:1,
6:u178:1,
6:u179:1,
6:u184:0,
6:u185:0,
6:u186:0,
6:u187:0,
6:u188:0,
6:u189:0,
6:u190:0,
6:u191:0,
6:u193:1,
6:u196:1,
6:u197:1,
6:u198:1,
6:u199:1,
6:u200:1,
6:u201:1,
6:u202:1,
6:u204:0,
6:u206:0,
6:u207:0,
6:u208:0,
6:u209:0,
6:u210:0,
6:u211:0,
6:u213:0,
6:u215:0,
6:u217:1,
6:u218:1,
6:u219:1,
6:u221:1,
6:u222:1,
6:u223:1,
6:u227:0,
6:u228:0,
6:u230:0,
6:u231:0,
6:u233:0,
6:u234:0,
6:u235:0,
6:u237:0,
6:u239:1,
6:u240:1,
6:u241:1,
6:u242:1,
6:u249:0,
6:u250:0,
6:u251:0,
6:u252:0,
6:u254:0,
6:u255:0,
6:u256:0,
6:u257:0,
6:u258:0,
6:u270:0,
6:u271:0,
6:u272:0,
6:u274:0,
6:u275:0,
6:u276:0,
6:u277:0,
6:u278:0,
6:u281:1,
6:u282:1,
6:u284:1,
6:u286:1,
6:u288:0,
6:u290:0,
6:u291:0,
6:u293:0,
6:u294:0,
6:u295:0,
6:u296:0,
6:u297:0,
6:u298:0,
6:u299:0,
6:u300:1,
6:u301:1,
6:u309:1,
6:u313:1,
6:u314:0,
6:u315:0,
6:u317:0,
6:u319:0,
4:u1:1,
4:u3:1,
5:u11:0,
5:u12:0,
5:u14:0,
5:u21:1,
5:u23:1,
5:u26:0,
5:u32:0,
5:u33:0,
5:u34:0,
5:u35:0,
5:u36:0,
5:u39:0,
5:u41:1,
5:u48:1,
5:u57:0,
5:u66:0,
5:u68:1,
5:u69:1,
5:u76:1,
5:u77:1,
5:u82:0,
5:u85:1,
5:u93:1,
5:u98:1,
6:u105:1,
6:u108:1,
6:u112:1,
6:u118:1,
6:u119:1,
6:u124:0,
6:u125:1,
6:u129:1,
6:u130:1,
6:u133:1,
6:u135:1,
6:u141:1,
6:u149:1,
6:u152:1,
6:u158:1,
6:u160:1,
6:u163:1,
6:u164:1,
6:u165:1,
6:u168:0,
6:u177:0,
6:u180:1,
6:u183:1,
6:u192:1,
6:u203:1,
6:u216:1,
6:u220:0,
6:u232:1,
6:u238:0,
6:u245:0,
6:u253:1,
6:u259:0,
6:u261:0,
6:u269:0,
6:u289:0,
6:u302:1,
6:u303:0,
6:u311:0,
5:u17:0,
5:u37:0,
5:u55:1,
5:u58:0,
5:u70:1,
5:u71:1,
5:u84:0,
5:u90:1,
5:u96:0,
6:u109:1,
6:u110:1,
6:u111:1,
6:u115:1,
6:u122:1,
6:u132:1,
6:u140:0,
6:u171:1,
6:u176:1,
6:u182:1,
6:u205:0,
6:u224:0,
6:u225:0,
6:u229:1,
6:u236:0,
6:u243:0,
6:u244:0,
6:u246:0,
6:u263:0,
6:u264:0,
6:u265:0,
6:u266:0,
6:u268:0,
6:u279:1,
6:u285:0,
6:u287:0,
6:u292:0,
6:u306:0,
6:u307:0,
6:u308:0,
6:u310:0,
6:u312:0,
6:u318:1,
5:u16:0,
5:u42:1,
5:u45:1,
5:u46:1,
5:u50:1,
5:u60:1,
5:u79:0,
5:u94:1,
5:u97:1,
6:u114:1,
6:u138:1,
6:u151:1,
6:u167:0,
6:u181:1,
6:u262:1,
6:u304:0,
6:u316:0,
5:u53:1,
6:u194:0,
6:u214:0,
6:u248:0,
6:u260:0,
6:u273:0,
6:u283:0,
6:u305:0,
5:u74:1,
6:u106:0,
6:u117:1,
6:u120:0,
6:u226:0,
6:u247:0,
6:u280:0,
5:u13:0,
5:u18:0,
5:u20:0,
6:u127:0,
6:u195:0,
6:u159:1,
6:u212:0,
6:u162:1,
6:u267:0,
0=-0x1.d6cd2febe51dp-9
4=-0x1.051db44d9c514p-5
5=-0x1.c92d9d8a0855ap-11
7=0x1.414ba8940f37ep-6
8=0x1.1d7e3151934d7p-9
9=0x1.b09e1782b4888p-10
10=0x1.900051785fceap-4
13=-0x1.e82eec06c4a28p-5
14=0x1.fd15c64ab0717p-3
17=-0x1.deb5405c203e8p-5
20=0x1.e9a558427ea13p-5
21=0x1.467e141a9e57dp-6
23=-0x1.2779c91ecbfd3p-4
29=-0x1.319989448aa0fp-11
30=0x1.d988e3d96305bp-5
33=-0x1.832e56bddf95fp-9
36=0x1.1a0c69efc3acp-12
40=-0x1.fa8dc97b8b00ep-5
44=0x1.53f4f72143417p-5
45=0x1.ea932d00b8ce1p-6
47=-0x1.1807d234c2145p-11
48=-0x1.bb11341dba6a1p-5
54=0x1.807fe6e42a7b8p-5
55=-0x1.28efb8907a8p-12
58=-0x1.60a93438eb612p-7
59=0x1.3275593ad0b2fp-6
62=-0x1.d00e5421725c2p-15
65=-0x1.e5ed2747e4b0cp-12
66=0x1.482caafde3a3bp-6
67=-0x1.6f6ec8b1bf26ep-10
68=-0x1.57eeb07edc45cp-12
69=0x1.1f542f9e24d38p-10
70=-0x1.a7b061f1caff7p-12
71=0x1.5362db7cd3733p-7
73=-0x1.12d654b80552ep-10
74=0x1.2d8c244884d06p-6
75=-0x1.f773a6909c449p-6
78=-0x1.8bf15f995936p-10
83=0x1.27529213369a3p-3
85=0x1.4c69f4969f984p-13
86=-0x1.e31c119eea11cp-6
87=-0x1.5e824084f7f76p-6
89=0x1.a7aa20f97c26bp-10
90=-0x1.012ec4c5b1d27p-11
91=0x1.2ad93538c8ec9p-11
93=-0x1.049fd4772f207p-3
94=0x1.591b3255d6373p-5
95=-0x1.f03ed16422156p-6
96=0x1.db5a607c7ea88p-6
97=0x1.cf4024f698ea9p-13
98=-0x1.3733650905c6dp-8
103=0x1.19951d76e5063p-3
104=-0x1.2995013508483p-3
105=0x1.218e1390f66adp-6
110=0x1.1c9ed725a7215p-9
112=-0x1.4e9cbc21d24a6p-8
113=-0x1.2027762cdc22p-3
114=0x1.3a3eb1afb2ea8p-5
116=0x1.9b011ec309eebp-6
117=0x1.1cb2eb814ff69p-10
119=0x1.63f763a7bf9fap-12
120=0x1.261fac245e1c2p-9
122=-0x1.c5a4df665c1e5p-13
123=-0x1.b31ba9c869e0cp-4
124=0x1.070f13df531a6p-6
125=-0x1.991fa679d1336p-12
126=0x1.bae8ffd0fb1c1p-5
127=0x1.9d7987e43742ep-5
129=-0x1.3b275b820e7cbp-6
130=0x1.276a967c7e4a6p-6
132=-0x1.e669eed0ec756p-5
133=-0x1.05c4ffb20c269p-6
134=0x1.94555ff157bdcp-5
136=0x1.bce8ce18d5b9ep-5
138=-0x1.31eac92b895ccp-13
139=-0x1.c0f6fc8f428c2p-7
140=0x1.29441822aad82p-4
142=0x1.4f60b73f9b718p-12
143=-0x1.967e6fb921229p-7
144=0x1.1a69a3f3b9bb5p-4
145=-0x1.f1080839ec168p-5
146=0x1.b03dc8928fc2ap-5
147=-0x1.e2a337e92e538p-12
149=-0x1.a7942510fa8ecp-11
150=-0x1.22abf33ddef82p-6
152=0x1.4d7522dee1392p-8
154=-0x1.e3a6683d5d9fp-5
155=0x1.ca3325f2929ddp-6
156=-0x1.184f9eb21ffbcp-5
160=0x1.258953fc9a1b4p-4
162=-0x1.cf0602c2631b9p-6
164=0x1.98ea26ac4c703p-5
165=0x1.23d0338cd857ep-6
166=0x1.0d0dfad7b3cc8p-4
167=-0x1.f6f9a0d5ed3p-4
168=-0x1.6778639b5238bp-9
169=-0x1.1b7fcf1a80058p-10
170=0x1.d9a0967ce77e1p-4
171=0x1.50bc37e72e4f6p-10
172=-0x1.84eb9c00c9928p-3
173=0x1.b213ace97e3aep-8
174=0x1.25a1cd5289ed4p-5
175=0x1.c9cb44a601f8ap-8
176=0x1.f91c7f48d9a6bp-6
177=-0x1.86cf729584f92p-5
178=-0x1.693acea4de841p-10
179=0x1.ab4b58f4b7844p-9
180=0x1.95d498b460627p-4
181=0x1.20668b11e7177p-9
182=-0x1.16cb81fdc59cbp-4
183=0x1.1a6e1d799cb7ep-6
184=-0x1.a6f63ffbe580bp-7
185=0x1.03adcd8e437c6p-6
186=0x1.379c7346ceb42p-6
188=-0x1.1b9e62c571416p-9
189=-0x1.d85842b170702p-6
190=0x1.08988f5620158p-4
192=-0x1.5f3636bba8cd8p-6
193=0x1.2f035ab1d77f4p-5
194=-0x1.1fbc48998c5f4p-5
195=0x1.eea80fb3e28fdp-5
196=-0x1.c501c379668aep-7
197=0x1.42870ac7ef6b3p-5
198=-0x1.d27b3b971dc99p-8
199=-0x1.0ae98c84bc562p-6
200=-0x1.afed0655bc044p-5
201=-0x1.73a0ba745826ap-9
202=0x1.4fad8593021b4p-7
203=-0x1.3901d7f9b4e3p-9
204=-0x1.bce5f43cc93c5p-4
205=0x1.709cf4cfdf17cp-6
207=-0x1.8ad7e707483eap-10
209=0x1.b6cd42e22a64p-5
211=0x1.3ce39799cc402p-4
213=-0x1.7ef91b1eada1fp-4
214=0x1.01110a78f47ffp-3
215=0x1.1d5fe4b90b4bcp-5
217=-0x1.c9543d7c993d8p-7
219=-0x1.0d207d20aa821p-5
220=0x1.845ef45690d2ep-8
221=0x1.2ca90518994d1p-10
222=-0x1.282299479be9cp-4
223=-0x1.afd8e7ba32fa9p-4
224=0x1.05cc296cb1068p-3
225=0x1.471cd32b57a21p-6
227=-0x1.e61420d6bd734p-12
229=-0x1.532468fb59632p-7
230=0x1.38bfb2a6c09afp-5
231=0x1.3c13aa0b3a8f4p-10
237=-0x1.06d19dd7d6cf1p-9
239=-0x1.80ca6e98b90b7p-5
245=-0x1.503ff1c6fa1cdp-11
246=0x1.868d0e4bc62p-17
247=-0x1.38463e9ce91cep-9
249=0x1.b2044a54db34p-7
250=0x1.88a388461ac5p-13
252=0x1.3c17889b4164ap-8
254=0x1.7a5b928142ee6p-5
255=-0x1.aa339c18295b3p-6
257=-0x1.9b999eb455612p-9
259=0x1.6d0b356b4c9d8p-8
263=-0x1.ca834c3e63b2p-8
264=0x1.841e06ae386b6p-4
265=-0x1.ae33cbf72c93ep-10
270=-0x1.e7e6cd850b2b1p-9
273=-0x1.e583f4ec4b3c6p-6
274=0x1.ac831747b303cp-4
275=-0x1.597b585875243p-6
276=0x1.91c8a0a31ff59p-6
277=-0x1.599d61454161cp-15
279=0x1.13d107545a9b5p-7
280=0x1.9b7c7fed59761p-5
282=-0x1.5a22846494cep-9
283=-0x1.0c60724f6c7f3p-6
284=0x1.a1b7b83c4a5d4p-4
285=-0x1.0a62dc5e69445p-3
286=0x1.5b9c3bc9e9c6fp-4
287=0x1.6046d93ea023cp-6
290=0x1.39853cf604dcdp-4
292=-0x1.d1380b4c506e1p-9
293=-0x1.83685dfe91adap-3
294=0x1.01bf7d307252cp-4
295=-0x1.c6848d0e37cffp-4
296=0x1.18f1168960e8bp-3
297=0x1.c52fe0023ed46p-5
298=-0x1.ee0c2f5bfe03p-9
300=0x1.08a81afb1e257p-4
302=-0x1.ee4b4c051491dp-7
303=-0x1.740b121e429b8p-4
304=0x1.82886effd67d9p-5
305=-0x1.09cb047c580b6p-4
306=0x1.912839d6be46ap-4
307=0x1.872cc70497af5p-4
310=0x1.771e0a5cda28ap-4
312=-0x1.4983392873a7ep-4
313=-0x1.2fa87e9f76211p-6
314=0x1.5cda69fc2fc7cp-4
315=-0x1.d2a1e56c1a309p-4
316=0x1.87074ac1337ep-4
317=0x1.c9b8c75790272p-4
319=-0x1.762f2524d5b8cp-10
320=0x1.599f4b5a67c3ep-6
322=-0x1.238f799f68a47p-4
323=-0x1.3b696fc7cc1d1p-3
324=0x1.86c41e3a4f1b1p-4
325=-0x1.786ead412fea7p-4
326=0x1.2467526985492p-4
327=0x1.275471d446d71p-2
329=-0x1.8295f9ff4e058p-10
330=0x1.b596bdce54f1ep-4
332=-0x1.807f5c41747b1p-4
333=-0x1.6b8d3e099fb68p-10
334=0x1.44682aa7e7cdp-4
335=-0x1.0644a299db5f5p-3
336=0x1.31bb5b4cc486dp-4
337=0x1.7f1d4380c4b65p-3
338=-0x1.1f61ce8799324p-7
340=0x1.2af7559caabdp-6
342=-0x1.8f49346d576dfp-4
343=-0x1.c8402142c13c8p-7
344=0x1.9870ebf0d1f4fp-4
345=-0x1.71a419f7e3896p-4
346=0x1.86186d8d8b381p-4
347=0x1.eea6e92a550c4p-4
349=-0x1.fbba85a4a288cp-9
350=0x1.2838fa624ecd7p-4
351=0x1.39f7599f40595p-9
352=-0x1.7bd8cee245226p-4
354=0x1.2ccc0396895fcp-5
355=-0x1.6f359feb4306p-4
356=0x1.714370f48aa01p-3
357=0x1.8ae42e709cd7p-17
358=-0x1.96fa76f2c64ecp-7
359=-0x1.42a4cb47966c9p-6
360=0x1.d7ca4cf0ca92ep-3
361=0x1.8bebb5eb78692p-4
362=-0x1.5224571c24df8p-4
364=0x1.103e025cc69c1p-5
366=0x1.4686430de1226p-3
367=-0x1.49a88e3add4c4p-6
368=-0x1.2e192371a2886p-8
369=-0x1.7bab8b303176dp-3
370=0x1.cd22e20d59c6ap-3
371=0x1.7182e0f8e6421p-3
372=-0x1.0768055d4a94ep-4
376=0x1.67347e57ae0bap-4
377=-0x1.0c9f085118555p-4
379=-0x1.cb0888bbdc057p-3
380=0x1.94a101f5d1131p-3
381=0x1.c1f8626451d62p-4
382=-0x1.e91b01bd70dffp-5
384=-0x1.9c60f7db2e5e8p-7
388=-0x1.02464f7e06bffp-6
389=-0x1.d1279590a77f9p-6
390=0x1.d2d8e39f8257fp-4
391=0x1.52716632df078p-5
392=-0x1.0a6e76ac75c15p-7
393=0x1.997821e8c70e2p-6
394=-0x1.51a5db294fd98p-3
395=-0x1.8b48d1dd8792ep-13
397=0x1.4ba33172db6f5p-6
399=0x1.daed72d228115p-9
400=0x1.da98e2e0db41bp-4
402=-0x1.b1518a1aa3162p-5
404=0x1.6dbbf3f101dd2p-4
406=-0x1.32fc8a5575586p-6
409=-0x1.688d3b04f9f7cp-7
410=0x1.6bae8d837042dp-7
412=-0x1.404bfaac9ea71p-6
413=-0x1.a96e62b1eaab1p-5
414=0x1.fd6746171ec1p-4
415=0x1.8386e17368e82p-6
417=-0x1.e8b104d533332p-10
419=-0x1.89f592cb34af4p-5
420=0x1.b64563ca9da3p-5
424=0x1.226849a787106p-4
426=-0x1.41341e59d6d8p-12
427=-0x1.7a4f848a9a984p-8
429=-0x1.db993a5f6dc7bp-5
430=0x1.1c17ced9c1297p-5
435=-0x1.564c66abf1adap-11
439=-0x1.9f986f1d7a622p-7
445=-0x1.5acbe9ac3bb1ep-5
449=-0x1.065732558e716p-4
451=0x1.1a6d66f63ef12p-11
452=-0x1.63dbf54cd4adbp-9
454=-0x1.a7f212c45a4d8p-15
457=0x1.8c7bcda362df8p-5
461=0x1.2ef74ba2f688ap-8
463=-0x1.c773f350ecbd2p-9
464=-0x1.fe8ef55e22f9bp-7
467=0x1.04fa7ac189baep-5
469=-0x1.7e7421bcc6298p-7
474=-0x1.a47f905a9ed68p-13
477=0x1.0b49741722259p-8
478=0x1.7a4072d1ace4ep-7
481=0x1.ed64473b15e71p-9
482=0x1.1d02334c0492fp-9
485=0x1.6f11144c8b6fcp-5
486=-0x1.db2c1f84abb3ap-3
490=0x1.12e3b731d12ep-5
491=-0x1.3ea921321168bp-5
496=0x1.02a5253ff0764p-4
497=0x1.dc9cda1a664e1p-5
501=0x1.25a511fddb3c5p-8
502=0x1.57726de9e09aap-6
505=0x1.7db5717d94948p-5
506=-0x1.e3e89b3a04c46p-5
507=-0x1.503f566f32b52p-4
508=0x1.31dcf051f4fa9p-5
510=-0x1.8c1eff03ea17cp-5
511=0x1.178741db13c71p-5
512=0x1.4ed4d13fdfe7bp-6
514=-0x1.11fa29088fed8p-7
515=0x1.787051944ed1cp-4
516=-0x1.e11e54d7f74c2p-4
517=-0x1.5c0f237735832p-4
518=0x1.2c959aff1e47ap-5
519=0x1.419d8bc265cb6p-7
520=-0x1.f5c8bd155f0b9p-5
521=0x1.38024288b030ap-5
525=0x1.4fac9da07727fp-4
526=-0x1.ec80e9cd257d5p-4
527=-0x1.d08bc49129b25p-2
528=0x1.3886e31b4c592p-4
529=-0x1.b888d2b4204a3p-7
530=-0x1.1b96fe3cc716dp-4
531=0x1.758cd4f9492f4p-4
532=0x1.dfd0e4bb01db5p-8
535=0x1.0d72ce6fb9af8p-5
537=-0x1.3d5a8a04141a3p-4
538=0x1.6f01794cff83bp-6
539=0x1.eccd0f8cc8e72p-7
540=0x1.97c14e81015p-13
545=-0x1.ca076b3fdbbb9p-5
546=0x1.b7eba2fc3d242p-4
547=0x1.e26e503d25cap-4
548=-0x1.5e608b20752b1p-4
550=-0x1.0a3ebd7206a09p-4
552=0x1.e14b1da87de66p-11
555=0x1.edf08dac8dd34p-5
556=-0x1.727f44b3657e6p-3
557=0x1.48e867c942174p-8
558=0x1.21392d20e28p-4
559=0x1.a3aec2d60d699p-5
560=-0x1.97676cc341662p-5
562=0x1.8b9a5448f6376p-9
564=-0x1.29eb62aa15b35p-6
565=0x1.8199196ec90b1p-6
568=-0x1.9c8371fed42dp-8
569=0x1.bc5838263c678p-5
570=0x1.66b21a0138292p-3
575=0x1.003b30386ba2dp-7
576=0x1.8dabcebe3a9c9p-5
577=-0x1.23ccaa5c8f4bp-4
578=-0x1.56635610e2efcp-12
580=0x1.a22f2ad4efee9p-3
581=0x1.0af8f5a56fadfp-11
584=-0x1.139a6ee88a1adp-4
586=-0x1.0c28c8634b74ep-10
588=0x1.0f16c8f3c1c63p-4
590=0x1.3ea4f9348ee11p-5
591=0x1.3abf7a4650299p-6
592=-0x1.7fa5cab97dccdp-4
593=0x1.ca466623965e2p-10
594=-0x1.484db050d69e5p-4
595=0x1.5232545829d51p-6
596=-0x1.b743a3adaf99cp-4
599=0x1.d1d63c8c127b7p-7
600=0x1.019f6da021db6p-6
603=-0x1.2f4fa25bc3255p-7
605=0x1.cd7baafc3267ep-7
610=0x1.7f49bd7dc7057p-5
611=-0x1.7aa6a7a8bab5p-7
614=0x1.29f483535db73p-3
617=-0x1.2887c966796eep-11
620=0x1.49d46ebb7b20dp-7
624=0x1.fe2010bacacf3p-5
626=0x1.47920d790a06bp-6
629=-0x1.0d6a48b8c923fp-7
630=0x1.1f8cee28a5fa2p-5
632=0x1.55632a6c58f6bp-7
635=-0x1.8865714081bcap-9
637=-0x1.6e52f71027b2fp-8
638=0x1.18b4f908c895bp-6
639=-0x1.14df30d853578p-5
645=-0x1.3da9816c5804cp-6
654=-0x1.e6c4fc859dde7p-7
655=-0x1.cbdf169dd61ebp-7
656=0x1.ab447dcaea737p-7
657=0x1.922bda413a3f7p-7
658=0x1.8d2a4b781e6bep-6
659=0x1.03ee504f601ep-14
664=0x1.b16fea4f7ebe9p-6
667=-0x1.adba07c40cee4p-10
668=-0x1.47f185d8c9c9cp-6
678=0x1.11dd59ce86044p-5
679=0x1.45e87ee040d25p-5
680=-0x1.e5b22e76f36f6p-5
681=0x1.bc4f71b64a1e9p-9
683=-0x1.5124f32cebe4ep-8
685=0x1.cf4160f9f53f2p-6
688=0x1.334f88b5d2e0ep-5
691=0x1.98c6144e14e65p-12
692=0x1.d1d71330cb517p-10
693=-0x1.0f71675407331p-10
694=0x1.0b481a908e02bp-6
695=0x1.661eec637437p-6
696=-0x1.f4ecc8bd30232p-5
697=-0x1.a56f40c22459ep-10
698=0x1.5fe9a1a0b61f5p-5
699=0x1.156059fd84563p-9
701=0x1.4578df70faf22p-4
702=0x1.6dc39206d7f3p-8
703=-0x1.2ca767f0be1c9p-4
704=0x1.c7808e69d96d5p-9
705=0x1.fd8681faf66d1p-6
706=-0x1.021208dd36b18p-4
707=-0x1.3192181972423p-7
708=-0x1.62cf1f5f62915p-8
709=0x1.d9d90cbaa954ap-9
711=0x1.92bb6f28ac3c4p-9
712=0x1.2cf3559bb4cap-4
715=0x1.af34ee9f76619p-5
716=-0x1.811b077de6dbap-4
717=-0x1.a9d737805abf9p-4
718=-0x1.12363e704a74ap-11
719=0x1.092974e4a11f6p-6
720=0x1.72411f3d1a084p-10
721=-0x1.72f204d14b845p-8
722=-0x1.7ca5df063f3b5p-5
723=0x1.17ec22d14f466p-4
724=-0x1.136ca9658849p-8
725=-0x1.44403eae72b91p-4
726=0x1.8aa4ce932d2fep-4
727=0x1.49fe944a5fb9ep-3
728=-0x1.8bb900313470bp-6
730=0x1.1184fcb4c0e0bp-6
731=-0x1.111ce7ba11032p-7
732=-0x1.93b151bc368d7p-16
735=-0x1.2407edc6b2b83p-4
736=0x1.263ed824d322p-4
737=0x1.58109b238a503p-3
738=-0x1.5227e27728751p-6
742=0x1.3f226323285a6p-13
746=-0x1.489fbdf2bfafep-3
748=0x1.872307489213ap-5
749=0x1.41bb0abf7f4f6p-6
755=-0x1.ff4422c09f62p-8
757=-0x1.6f13d3c069ad8p-10
758=0x1.18ee1750b5809p-5
759=0x1.bf85a50209c8bp-6
762=0x1.7a4b3efa9b22p-8
763=0x1.0293687dbe5f9p-4
767=-0x1.29de971fd9bb8p-8
769=0x1.fc492bd516379p-9
772=0x1.348cf3932df2dp-5
774=-0x1.7ca7f9a69ac24p-15
775=-0x1.05bade705dcd8p-4
780=0x1.92a0ee4bde22bp-3
782=-0x1.59a47aa4647b6p-3
783=-0x1.220334dfc0124p-6
785=0x1.fe7513a8d173bp-5
787=-0x1.60e3f6f7615fcp-4
788=0x1.379434b1fb6eep-3
789=0x1.e774825eddbfep-5
790=0x1.75414de962124p-3
794=-0x1.b5cbe229757dp-3
795=0x1.f9eb822192ccap-5
796=-0x1.82db07648e686p-7
797=-0x1.2119288cbe4d9p-4
798=0x1.c85b6f71f9584p-4
799=0x1.a0fa386b8f3b1p-5
800=0x1.c93cff9e7c70bp-7
802=-0x1.6d152e65325dep-5
805=0x1.20d2ce3f7cc52p-4
807=0x1.16d13d7ae02c1p-6
808=-0x1.9efc5ce4aa09ap-12
811=-0x1.75b9bcc238795p-4
816=0x1.9faafd5262301p-5
821=0x1.19155065e2f95p-3
826=-0x1.13d4184caa0e9p-5
829=0x1.a8669a234817cp-8
830=0x1.1947e2a5eab0ap-6
831=-0x1.74361a531302cp-4
834=0x1.5fb20b05df894p-6
835=-0x1.de8475b63ced8p-6
836=0x1.6b1b8fde65984p-5
837=-0x1.2943a770b5409p-6
839=0x1.9c17196caabe4p-12
841=0x1.abb9f471b29f6p-4
843=-0x1.c274a75d70873p-4
846=-0x1.0bb791c6c4c17p-5
847=0x1.4d309f49b5e7p-10
850=0x1.0e0030ca3b54bp-6
851=-0x1.e30099f827a87p-6
852=-0x1.1d54eb72c5135p-6
854=-0x1.7ac424b71d3dep-8
855=0x1.7def295a59b2fp-7
857=-0x1.d0d24b986577ap-10
859=0x1.78957660c124fp-8
860=0x1.8f34af648f0a2p-8
861=-0x1.3607cc6bb390cp-4
862=-0x1.b2911fe26212p-5
865=0x1.574e36551fe55p-6
867=-0x1.56ffc993ed494p-11
868=0x1.9505391e30ea7p-4
869=0x1.0e2f9b0beed7p-7
870=0x1.148f9fc3ed7fdp-6
871=-0x1.ced86bb7cef4p-7
874=-0x1.24ee6cee2e5f6p-4
877=0x1.9847baf677829p-5
878=0x1.ac10198f7319fp-6
880=-0x1.69a818f6a7b6ap-7
882=0x1.8152d10c578b5p-6
883=-0x1.f7ffd65aa0a64p-11
885=-0x1.2aadd37d9d0a3p-8
886=-0x1.3c5d97020a7a2p-5
887=0x1.fb952428d0ccfp-6
889=0x1.089a18dcecdf3p-6
890=-0x1.86e0947df787ap-11
891=0x1.1c36db5551ac5p-5
892=0x1.e504130e6f0a1p-6
894=-0x1.2fdc9977fa95ap-8
895=-0x1.7de94091f669ap-6
896=-0x1.c971dd83069b1p-5
897=0x1.0dc378b5f852fp-9
899=0x1.6a65ab31db24cp-12
902=0x1.b94381d15e9bep-4
903=-0x1.a3a2a6ded424cp-7
906=-0x1.eb0dc342df0efp-5
907=-0x1.4fd94b0f35619p-6
909=0x1.44264139725b4p-6
910=-0x1.ffe76e6ff467cp-7
911=0x1.b2dc559cc63a6p-7
912=0x1.fdd518120a647p-3
913=-0x1.a341a52a6371ep-4
916=-0x1.27d627f496ba1p-5
917=-0x1.86d0d294ab1cp-4
919=0x1.8588398a1ae36p-5
921=-0x1.e191dafae7c7ap-8
922=-0x1.9bec3a2c8e852p-11
923=0x1.47cd8ab8b63fbp-4
924=-0x1.e366d37574344p-12
925=-0x1.453f51e1efaeap-6
927=0x1.f1ca79f046fb2p-5
928=0x1.3588c7669c7a7p-4
929=-0x1.0a034e9d826fbp-4
930=0x1.09daa77b872adp-11
931=0x1.004af66c89efcp-4
932=0x1.aea26f4ff6386p-9
933=-0x1.0654021f9540dp-5
938=-0x1.0cb88cc30fbfap-5
939=0x1.52ac0b4b4fa09p-5
940=-0x1.dadb02e982b2cp-11
941=0x1.a9346a2ac151cp-5
945=0x1.0fbcb0c3eb66fp-4
947=-0x1.0e74b45332fbap-4
949=0x1.25427aa4dc4bfp-6
952=-0x1.06225cd2eeabap-12
955=0x1.0b923dccada76p-6
957=-0x1.ec69c5f0ceb08p-11
958=-0x1.a08f1802adfa5p-10
959=0x1.5b72944f2fc21p-7
960=-0x1.2a94ae4e1259p-8
963=-0x1.28091ca48b546p-9
966=0x1.fa159dddb4d0cp-7
968=0x1.3703e52b7d0a9p-5
972=0x1.d3dc14b2dc13dp-4
973=0x1.572049cf2fe4ap-5
979=-0x1.2b77e70f64d1dp-4
980=-0x1.59671fbec0ba1p-4
982=0x1.addf30057494ep-5
983=0x1.2300a9aeb3805p-4
984=0x1.fa5201eb72bd8p-5
985=-0x1.6806604e9b4a2p-5
986=0x1.abf9e2a656d18p-5
988=-0x1.918b29ecbe9c5p-4
989=-0x1.2beada0cea21fp-3
990=-0x1.a946a24773dcbp-4
992=0x1.e499dcfae223fp-4
994=0x1.e4faa48d62b52p-4
995=-0x1.b78fa0a5a642ap-4
996=0x1.0ae5e9c3c7f88p-4
997=0x1.2c65a64c3c92bp-4
998=-0x1.1f33e540dd8a5p-4
999=-0x1.8c88747486e79p-3
1000=0x1.b30c45391833ep-7
1005=0x1.722b670b0994p-5
1007=0x1.2ac392dfa2581p-6
1008=-0x1.126b5380c8d6fp-6
1011=-0x1.44185099571a9p-5
1012=-0x1.ec19524cf0496p-9
1014=0x1.6014d8e9a5601p-6
1015=0x1.3e272a32d53f3p-5
1016=0x1.64a5a58b621dcp-6
1018=-0x1.3e0e545bd6c3ap-4
1021=-0x1.db1a8e8a786e6p-6
1022=-0x1.0fd3191dc0f5dp-8
1023=0x1.653eb6d43012p-15
1024=0x1.0da31e4a68d7bp-4
1025=0x1.5848191bce302p-6
1026=0x1.08c2efb265f6cp-8
1027=-0x1.0163a050cf0c1p-6
1028=-0x1.1ad368308d659p-4
1029=0x1.26e30ba3aceefp-6
1030=0x1.e21a3c8efb209p-7
1031=-0x1.a0626dae505bcp-5
1032=0x1.cceb881b378dap-8
1034=0x1.0ed5e103e94d6p-5
1035=-0x1.32a09be596477p-9
1036=0x1.b6aa47992cb74p-7
1037=-0x1.7d8480bd123abp-7
1040=0x1.875507b325dcap-12
1042=-0x1.69dab9a6c1cb3p-4
1043=0x1.ffc003032df1bp-6
1045=0x1.c75d4fe083a72p-8
1047=-0x1.fc083dfd70ee6p-10
1051=-0x1.0af6e7901604ap-11
1052=-0x1.b888e6de846c2p-5
1056=0x1.420a6af8295dcp-7
1057=-0x1.bad1a093e2beep-9
1059=0x1.61014c5596ebep-7
1061=0x1.30483f20588ccp-5
1064=0x1.120ead5fcba6ap-7
1065=0x1.4b2fea3386edfp-5
1066=-0x1.92aaef4876278p-7
1067=-0x1.3c9c9d4147f4p-9
1068=-0x1.cb5b319026ce6p-3
1070=0x1.24a335eae5306p-7
1074=-0x1.30d3497478b4ep-4
1075=-0x1.cd42d31152568p-6
1077=0x1.0661b94bc822ap-4
1078=0x1.dc998f7676016p-3
1079=0x1.0e502106d96cp-12
1081=0x1.7170ef652d51p-7
1082=0x1.5f289265e770fp-7
1083=-0x1.0b1ebe8b5ed23p-7
1084=-0x1.79fc5e7d3ad78p-5
1086=-0x1.c9c3525abcd67p-7
1087=0x1.afba3469e67d2p-6
1088=-0x1.35859efcfbe36p-6
1089=0x1.743c48defae5cp-10
1091=0x1.25ded374d307ep-3
1092=0x1.258ef28d67deap-7
1094=-0x1.2072cbeb82fcp-7
1095=-0x1.4375f5f68ecbbp-5
1096=-0x1.83b26bacf9c18p-6
1101=0x1.a670ad6f797efp-5
1102=0x1.a920355307fc3p-4
1103=-0x1.4096e1255ef1ap-7
1104=-0x1.788e34fc8092dp-5
1105=-0x1.48d5a43710f8p-16
1106=-0x1.134c686a52b27p-7
1107=-0x1.7c4a03296d94ep-8
1110=-0x1.3f82d1d44a24ep-4
1111=0x1.0ab2e3f6eaf8p-5
1112=0x1.0c9599e923843p-7
1113=-0x1.4c9b32dd5acf2p-3
1114=-0x1.47837c72ef00ep-9
1115=0x1.757ca928afb2ap-4
1116=0x1.2aad9cdd84e88p-7
1117=-0x1.9f8c07218e058p-8
1118=-0x1.feca0fb889454p-12
1119=0x1.222c344709f8p-15
1120=-0x1.e9dc3ae42da46p-10
1121=0x1.0a6e1c1f52006p-6
1122=0x1.744c4db46f374p-8
1123=-0x1.d243f713668e4p-7
1125=0x1.159c1f619ea9p-5
1126=0x1.e182cd3462ddap-7
1127=-0x1.460d82fc5c337p-4
1128=-0x1.b87431431b119p-9
1129=0x1.6d404768b6154p-5
1135=-0x1.662fa6334d9f7p-5
1136=-0x1.1808e5ffea3eap-7
1137=0x1.9522c9f622baap-5
1138=0x1.60a4723a0bb1p-5
1139=-0x1.eafd097beca27p-6
1142=-0x1.97edc830d7994p-5
1145=0x1.5eed6648bc2bap-9
1148=-0x1.5dfe6905f2affp-6
1149=0x1.0d3ef148bfbc5p-3
1152=-0x1.43d9291b28664p-5
1155=0x1.140194f3a37e8p-6
1156=0x1.d35f96e08cdf6p-6
1158=-0x1.49cfe06a576cfp-4
1160=-0x1.5f893eea5b33ap-8
1163=0x1.afa8ae3e5a9f8p-9
1165=0x1.ece10336df072p-7
1166=0x1.a55d2c3547d86p-7
1172=0x1.ba9ef7accbaf8p-4
1173=0x1.2e7e683670bep-7
1175=-0x1.b44df74b89d5p-15
1176=0x1.6e2d5918600cep-7
1177=-0x1.cd2ecbdc4ddacp-10
1178=-0x1.df4bff0a1aedep-7
1179=-0x1.e5839e2600f37p-4
1180=-0x1.dc41623d5a6eep-4
1182=0x1.71e0b073e1424p-7
1183=0x1.b50a445a15a4cp-6
1184=0x1.26e7f5e7ba146p-3
1185=-0x1.b78d92036b8fbp-5
1186=0x1.b5f34c47dcf5ap-5
1187=0x1.29d54dda847bdp-4
1188=-0x1.401858a89270dp-8
1189=-0x1.3112e0f82d9abp-4
1190=-0x1.4e4f23580963fp-4
1192=0x1.d3fd021a4b1dep-4
1193=0x1.1e3998c70ce22p-5
1194=0x1.1ba26aeba0a56p-3
1195=-0x1.fd80c069db4ebp-5
1196=0x1.f9b9adce8511fp-5
1197=0x1.23602cd6339fcp-6
1198=-0x1.6d259a617b27ep-4
1199=-0x1.4bf15220bd055p-4
1200=-0x1.425d32537cdep-8
1202=0x1.2eeadb4cef3bp-5
1203=-0x1.3bd4c84494568p-13
1204=0x1.7c0a7d76e41b2p-10
1208=0x1.47d7239fc6d6p-5
1209=-0x1.161316f195ffp-13
1210=-0x1.308fcc3f83387p-10
1211=-0x1.6042c47209c6ep-4
1212=-0x1.3721f090e4234p-14
1213=0x1.15f4c6fa07827p-5
1215=0x1.f24453a228f7fp-6
1218=-0x1.604219c65d876p-5
1219=0x1.4c6850495784bp-8
1221=-0x1.f723041acaf43p-5
1222=0x1.bccadbf9fa7dp-7
1225=0x1.3127b925472f7p-7
1228=-0x1.04cc490d242b5p-5
1229=0x1.a26fd30c5e23dp-6
1230=0x1.7dfe1d313fd87p-10
1232=0x1.cab281c2ea36cp-7
1234=0x1.4e45352ed8621p-5
1235=-0x1.5404361ede558p-5
1236=0x1.53cc8eaa5ef47p-5
1237=-0x1.b890ebe5f1f1bp-6
1238=-0x1.55c5f105ab88ap-5
1242=-0x1.fd2926fa740a3p-8
1243=-0x1.10ea6d68a52a4p-7
1245=0x1.4fc4574914d3dp-11
1246=-0x1.15b01cf46d9a9p-4
1247=0x1.0ae5f10a2b76ep-3
1253=0x1.f95d6e866c8a7p-8
1256=0x1.4e9b2c3d0dd0cp-6
1259=0x1.1078a4632bdfcp-11
1260=0x1.11fb1fc6e8e81p-9
1262=-0x1.71be0b0ef8921p-5
1265=-0x1.0fd381c1900dep-6
1266=0x1.6c83de3ac398dp-5
1270=-0x1.301b9140b0452p-10
1271=0x1.1ca7e49465f6ep-9
1272=0x1.586f031cbe7b2p-7
1274=0x1.855ec5698c64dp-6
1275=0x1.d7ccbf4e3003p-6
1276=-0x1.f0abbe6562482p-6
1277=-0x1.697854f10ff17p-7
1278=-0x1.8c504d1da0668p-6
1279=0x1.2d4fe4a78afb2p-12
1284=-0x1.ff8b427b16645p-5
1285=-0x1.56fbc0009f534p-5
1286=0x1.0c1fac4cae82cp-5
1287=0x1.399627e7fa00ep-4
1288=0x1.ac1cf65c3d692p-5
1292=0x1.9e1d3a85011f1p-8
1293=-0x1.e8d65b26e224p-8
1294=-0x1.2b773b9ea2b6ep-4
1297=0x1.f774fd23e20cp-12
1302=0x1.37672e64e6ddcp-8
1303=-0x1.7f94158de6647p-2
1305=0x1.d216bb1314ca9p-5
1306=0x1.82d8e27f34b9bp-6
1311=-0x1.e7cd07c903affp-6
1312=-0x1.07dea5e15180cp-12
1313=0x1.01c145df9a4eep-3
1314=0x1.4eae2b310be0ep-5
1315=-0x1.00c1164aa6991p-5
1317=0x1.af3d9cd29b074p-5
1318=0x1.ac53e5e1a7098p-16
1320=0x1.102f7d83ee269p-9
1323=-0x1.eb7b64ce4ddc6p-5
1325=0x1.f5e73e8e1e072p-6
1326=0x1.a6245547b3bc4p-6
1327=-0x1.31e4053c1ac43p-4
1329=0x1.a4560edb64cd2p-6
1330=0x1.7959db28d295cp-5
1337=-0x1.5880e501398f7p-5
1339=0x1.b7e6e8d65906ep-5
1342=-0x1.fcee29e9eb3ddp-4
1345=0x1.57c3a9ea507d1p-3
1346=0x1.2bef9845faee4p-5
1347=-0x1.96b6ebc113687p-5
1349=0x1.af4807bd6e231p-6
1350=0x1.20919c67bb914p-10
1352=-0x1.980466ab24a3p-5
1355=0x1.e361e7b426425p-6
1356=0x1.2580e8d1b2a6bp-4
1357=-0x1.4e0227ae0ebdap-5
1362=-0x1.e9ffae1fe2811p-7
1365=0x1.4c8124ef0042fp-6
1366=-0x1.32cc318cffeeap-9
1372=0x1.46bc7dae5ab9bp-5
1373=0x1.819f8f6e0aa12p-7
1375=0x1.5abe91e8efd93p-7
1376=0x1.dbfd6e77a7724p-5
1377=-0x1.2caf8c3511cap-8
1378=-0x1.369dcc0f68684p-9
1379=-0x1.15b172d9a3b2cp-5
1380=-0x1.32ee3f69baf59p-3
1382=0x1.29795090d5e7p-3
1383=0x1.675a00b34a1e3p-5
1384=0x1.98dd0ea61c43ep-5
1385=-0x1.f5e08816a07d8p-5
1386=0x1.13ed54a7bf484p-4
1387=0x1.313e3b19f7ad6p-4
1389=-0x1.0205bc4198a21p-4
1390=-0x1.1e998f22406dep-3
1391=-0x1.6bd000a1bc552p-7
1392=0x1.d8c3b377b47d5p-7
1393=0x1.2674e771e2e87p-4
1394=0x1.20861c6665a78p-4
1395=-0x1.4d0b1185fb6c3p-4
1396=0x1.f0171142bc946p-5
1397=0x1.d539e8dc33d5ep-4
1398=-0x1.926ce93aa2331p-5
1399=-0x1.fe4b851dce681p-5
1400=-0x1.050130fd43afep-7
1401=0x1.b286d832cc148p-12
1402=0x1.2f004824af5d1p-5
1403=-0x1.2a36679d2d59cp-5
1405=-0x1.13a16fc616ea7p-5
1407=-0x1.37642515f8dc2p-9
1408=0x1.d9ef7bb4d291dp-5
1409=-0x1.76bc99fa6ad94p-7
1410=-0x1.092670244aa36p-17
1411=-0x1.7ab0adc12826dp-5
1412=-0x1.3d6fcdbbd86c8p-8
1414=-0x1.1d38dd544bb6p-9
1415=0x1.312e9bbfa78bbp-4
1416=0x1.c80781b378349p-6
1417=0x1.3a7c0eddcae0ep-7
1418=-0x1.042fd6bbd7859p-2
1419=0x1.2fcf8f851ed5cp-6
1421=-0x1.c33bbe68abcbap-4
1422=0x1.b60579601db38p-10
1423=0x1.bbced61c29ec4p-8
1425=0x1.5d1919c04421cp-5
1427=-0x1.642c780b59a3ap-11
1428=-0x1.0884097f0eefp-4
1429=0x1.9224f13ee3c3dp-5
1430=0x1.becd8a8299048p-8
1431=-0x1.ca8cb61e9731p-6
1432=0x1.2921cbd58ead8p-5
1435=-0x1.00e850bfe7a89p-9
1436=0x1.b66742cbee14dp-5
1437=-0x1.4f6aa6a4fa7bdp-6
1438=-0x1.54796f5c70117p-5
1439=0x1.8cd9ae1a842e7p-11
1440=0x1.9734e2cec3d94p-9
1443=0x1.1b8ba9d8fc05ep-4
1445=-0x1.5d61ea23380acp-4
1446=0x1.84ddbd6f0dc18p-4
1447=-0x1.4ef101e888ae9p-5
1448=-0x1.2f7c7700c8412p-5
1449=0x1.b58ce93f5c838p-11
1450=0x1.5e35197d3cafdp-6
1452=-0x1.316942fbca86p-6
1453=0x1.824990a4cdf4bp-6
1455=-0x1.4614b2a2ae7b8p-6
1456=0x1.19a4663ea0d02p-4
1459=0x1.a059cc89cc174p-8
1460=0x1.44195b769cad2p-3
1461=-0x1.d324a68732cc8p-9
1462=-0x1.2e7efb169440bp-12
1465=-0x1.f336be808cc93p-5
1469=0x1.78d0d2e2e929p-11
1470=0x1.03c07f23366cdp-4
1473=-0x1.b27f5cc8f911ap-8
1478=0x1.ee33ffc6ef4e7p-5
1479=-0x1.883627da8e849p-7
1480=-0x1.342d69a179861p-7
1481=-0x1.2057b280e9808p-3
1483=-0x1.64e13d5688adcp-7
1485=-0x1.9487e59310435p-6
1486=0x1.1a5fa54e3e796p-5
1487=0x1.fb652cdda3bb4p-4
1488=0x1.cdb052d5a0f4ap-3
1493=-0x1.37997425515f5p-5
1494=-0x1.c1625d754a157p-5
1496=0x1.fd2f5ba6d55e4p-6
1497=0x1.6a9c3273b3fd5p-8
1498=0x1.f66d54a997ec5p-6
1499=-0x1.8ced7194f722fp-5
1500=-0x1.f8d353914cc12p-12
1503=-0x1.723d565da1d8p-6
1505=0x1.71b5c2b09e9d8p-6
1507=-0x1.5d1481d8cd852p-13
1508=0x1.f5a51d2d8782ep-6
1512=0x1.69e267aeb549ap-8
1513=-0x1.01aedd1f01a23p-5
1514=-0x1.4e60514c00581p-4
1515=0x1.1dadf8cfbb92dp-5
1516=0x1.9fc3952f8eb1ep-11
1517=-0x1.8518006638b19p-5
1518=0x1.66ec654f8c758p-4
1519=0x1.af6c9c336c231p-11
1522=-0x1.b868390d53e42p-6
1524=-0x1.54c38976b2d2cp-5
1526=0x1.9dfcf0dda15bap-6
1527=-0x1.9945109cfca4ap-9
1528=0x1.ba74850a64edep-7
1529=0x1.5a313b22f99ep-6
1530=0x1.a4fbad7f35d66p-10
1532=-0x1.f24056e06fb51p-5
1536=0x1.f33de93c394ecp-4
1537=-0x1.c2e6ba9fa6095p-5
1538=0x1.b41900ba2616p-4
1539=0x1.203d62f8412b8p-7
1540=0x1.24cb3b561d4dp-7
1541=-0x1.ae0e9c0298cf8p-7
1542=-0x1.a65973d879dc8p-4
1543=-0x1.d4c00c250d266p-11
1545=0x1.0d7f049a05fe8p-3
1546=0x1.4e33f8c728ddep-4
1547=-0x1.17fb97903d7f4p-7
1548=0x1.d44bea491932ep-4
1552=-0x1.6664f0c334201p-5
1553=-0x1.9e5155b464d4p-11
1555=0x1.70d55917f3fe7p-6
1558=0x1.3bb44aed2bea1p-4
1560=-0x1.dd2aa7c1fc33cp-11
1562=-0x1.38d1d11d0195p-5
1565=0x1.2422f9dd1f67cp-6
1566=0x1.c2d5f1aa361d9p-4
1567=-0x1.c481eaf532105p-5
1570=-0x1.0329ac92ded25p-7
1571=-0x1.0e328e466048ap-5
1572=0x1.4175281cfb949p-5
1573=0x1.9763b3535afbep-8
1576=0x1.399312ef6f886p-4
1577=-0x1.2ba22ae4cfa2fp-6
1579=-0x1.a80bcc46d07c9p-6
1580=-0x1.27ccffc60af32p-3
1582=0x1.0b1cc0cb85f4dp-2
1584=0x1.a8887814f088ep-4
1585=-0x1.185d4b922fa5p-5
1586=0x1.3c14b0df8e85ep-5
1587=0x1.10d46b1fe889ap-5
1589=-0x1.120ff49dda6b7p-3
1590=-0x1.a088897fff449p-4
1592=0x1.18a31594f346fp-5
1593=0x1.1ea11fc05aef7p-4
1594=0x1.6ff4f30aaff9fp-4
1595=-0x1.d170912d47197p-5
1596=0x1.069cf6c453bf5p-5
1597=0x1.a0aa9d764f6c4p-4
1598=-0x1.6b8c5faa46f5cp-8
1599=-0x1.b1cff8a147038p-3
1602=-0x1.4224838ddb8f8p-5
1603=0x1.7ca1098553edp-7
1605=0x1.315af980879b5p-5
1608=-0x1.d330105b46e36p-5
1609=0x1.45364728662bep-6
1610=0x1.0716068a5e3fep-9
1613=-0x1.47ec40ce0e2d7p-8
1614=0x1.f680d004ee879p-6
1617=-0x1.9ffda0ad73c58p-5
1618=0x1.85edbf515093ep-3
1619=-0x1.a1f77f97fc5a2p-4
1620=-0x1.91cc43253b259p-13
1621=-0x1.19662567627d8p-4
1622=0x1.7853c86cf9979p-5
1623=-0x1.46c687e3a7924p-11
1624=-0x1.17598076da4a9p-7
1625=0x1.6e4eda580a0c5p-6
1626=0x1.dabc4ce6868f1p-5
1628=-0x1.10b4f823aa721p-3
1629=0x1.438fb3a26b602p-5
1630=0x1.762399f7dc036p-7
1632=-0x1.6dd76e473279ep-10
1633=0x1.c401d17169448p-6
1635=-0x1.e9a68d69f2c4ap-9
1636=0x1.73888eb2bcc5p-5
1637=-0x1.158c05b0fcf07p-9
1638=-0x1.94e60938a2c88p-4
1639=0x1.a47f7cc75ea5p-7
1640=0x1.ca1924949e606p-6
1643=0x1.8441ece9e9ca6p-6
1644=0x1.31b9b3c9aa5a8p-8
1646=0x1.fb1d1b790f294p-5
1647=-0x1.8358bed593043p-6
1648=-0x1.1a6c1f1452eacp-5
1650=0x1.2cb8fbe5b4bffp-6
1652=-0x1.b4416d931bd27p-4
1654=0x1.3aca49a772437p-6
1655=-0x1.0f07ff336da3p-5
1656=0x1.21ac1b2acb693p-3
1657=-0x1.28bdefc883a64p-9
1659=0x1.b1ac0013499ccp-8
1660=0x1.24538da25f196p-4
1662=-0x1.a5070e7aedcefp-4
1664=0x1.255e4eeac1dd9p-6
1665=-0x1.371db2f7af25ep-5
1666=0x1.ba20106feccb7p-4
1667=-0x1.6662e83bb52f6p-11
1670=-0x1.c58f7f6622d9bp-5
1671=0x1.424ae1442e432p-6
1672=0x1.5cf4c8a315572p-8
1673=0x1.8617558a36f6p-10
1674=-0x1.4509a5dcad78p-7
1675=0x1.d9a71c4c7fcbfp-6
1676=-0x1.86e8e4ee31d0cp-5
1677=-0x1.9ad2a1afb2794p-12
1678=-0x1.60fe19a98d952p-11
1679=0x1.914387bb8bd2cp-6
1681=0x1.73777f386735ep-5
1682=-0x1.062f8acb9eaa5p-13
1683=0x1.3a012740e1eddp-4
1686=-0x1.01021938ef44p-4
1688=-0x1.2b9346cccea2ap-11
1689=0x1.46377ab403cdep-7
1692=-0x1.a8b985a0f97c8p-7
1693=0x1.ad7012c4d3043p-8
1694=0x1.244a4539a49eap-5
1699=0x1.fa46d53acf3a1p-6
1700=0x1.579077ec05407p-6
1702=-0x1.aeab72e93e261p-11
1703=0x1.7632758348308p-6
1704=0x1.38cef14a02b37p-7
1706=-0x1.52310060ea15bp-5
1707=0x1.f4a0b9063d2dp-17
1708=-0x1.7e027cb91046cp-9
1709=0x1.af6d708df6ce7p-10
1712=0x1.3805dd27df738p-5
1713=-0x1.c8d8a058e7f7ap-3
1715=0x1.30e73060bca0fp-7
1717=-0x1.e7a9822b4fefep-9
1718=0x1.41f2b55be7868p-8
1720=-0x1.0a2ea5f079a1p-9
1723=0x1.b3b524efcc822p-6
1724=0x1.a0120fda3a8b4p-5
1725=0x1.62b1f3199d6b4p-7
1726=-0x1.315697f6bda35p-5
1728=-0x1.c4e7e2a777df4p-5
1734=-0x1.057747cb95e9cp-6
1735=0x1.505f7debdac44p-5
1736=0x1.4ec6f5da7f055p-4
1737=-0x1.d4edf04b875dcp-6
1738=0x1.b27be810e3521p-4
1740=0x1.229fca7a79b75p-5
1741=-0x1.edd101e466fa5p-8
1742=-0x1.6d972ec16697fp-5
1744=-0x1.288e75ef1664ep-6
1746=0x1.56f7dfa76975p-4
1749=0x1.4cbc6d0ddeb2ap-8
1751=-0x1.c2709d0cc1fb6p-7
1752=-0x1.665d37991dfcep-5
1755=0x1.8974c6fe32c11p-5
1756=0x1.28ee8ea6fcca6p-3
1758=0x1.b9e3f12c7b0c9p-3
1760=-0x1.3517fe653e6b6p-6
1761=-0x1.820eaf526747dp-5
1766=0x1.2a534a2058d89p-3
1767=-0x1.3207af77c9342p-4
1768=0x1.60852ac99acb6p-4
1770=0x1.0d41832f37d2ep-5
1771=0x1.3a7c9e3a12ac5p-5
1772=-0x1.7aeed0bff7cd3p-5
1773=-0x1.b9043251b408p-6
1776=-0x1.3eca0382dca41p-4
1777=0x1.3166587ceed45p-6
1778=-0x1.350e1e045baa8p-6
1779=0x1.c869c3646d88p-5
1780=-0x1.4ed92a169da42p-3
1781=-0x1.1a1626291bd99p-5
1782=0x1.e931b21fe0751p-3
1783=0x1.2bd44faa0c64p-4
1784=0x1.ea45f22194d6fp-5
1786=0x1.f0bb2e8b916ddp-6
1787=0x1.b72892e392e43p-5
1788=-0x1.62ff50d93c3a6p-9
1789=-0x1.fe881ffc0176ep-5
1790=-0x1.b31b1db9ada09p-4
1791=-0x1.5668e48cf893ep-4
1792=0x1.2b6f321905e36p-7
1793=0x1.cd3eb9e371335p-6
1794=0x1.52b49b479fde3p-4
1795=-0x1.99ef8c0acd132p-5
1796=0x1.005d81e807e27p-5
1797=0x1.ba1500b5d6fecp-3
1798=-0x1.470208cd5221bp-6
1799=-0x1.f97d1e4129526p-5
1801=-0x1.3b15934fcf3d7p-4
1802=-0x1.294c5b3fea738p-4
1805=0x1.6dfc0f76ab867p-5
1806=0x1.ef315c7639893p-7
1809=0x1.9a78f31c4ec71p-5
1810=-0x1.2727127c778cp-18
1811=-0x1.33ebedec5892ap-3
1812=0x1.77e5ae01f5002p-4
1814=-0x1.3a1f18f737fc4p-9
1815=0x1.320ac62f26b4cp-5
1816=0x1.521c25f71f451p-5
1817=0x1.91afcb0914321p-8
1818=-0x1.08bd87cf6e466p-2
1819=0x1.69866452da4bap-5
1821=-0x1.0fa93de3839a7p-3
1822=0x1.7701da768dc19p-5
1824=-0x1.9f46339aca685p-8
1825=0x1.eddf8cab63ac7p-6
1826=0x1.d88aabc4c0b2cp-7
1827=0x1.3f77b1b51a332p-16
1828=-0x1.0b80393b84afbp-2
1829=0x1.d882697d2e554p-10
1833=0x1.aef9deddc0008p-7
1834=-0x1.c79bae089be03p-7
1835=-0x1.ab168b30fad74p-10
1836=0x1.9d8ab01608e52p-4
1838=-0x1.17bc485c929f3p-3
1839=0x1.defbdc4949edfp-6
1840=-0x1.98baf7960f2ffp-7
1841=0x1.4d11dbafd3ec7p-5
1842=0x1.7cd153b1210f4p-8
1843=-0x1.2c2c0edfd67dp-5
1846=-0x1.953c5a319f89dp-6
1847=0x1.e73995c06e40cp-11
1848=0x1.3f766d22a10a2p-5
1850=-0x1.3291b2be6d264p-5
1851=0x1.44a0a4e86290dp-6
1852=0x1.3f6569af0918ap-5
1853=-0x1.2d1bedd031461p-7
1854=-0x1.d5b09599df45ep-7
1855=-0x1.cf004cba087f5p-10
1856=-0x1.ef5c3a6b29cf4p-6
1857=0x1.48a83d2fed065p-5
1858=0x1.c85a90874ee3cp-6
1859=-0x1.4a9522ec08e1fp-10
1860=-0x1.00797412b1bbdp-3
1861=0x1.74b49e2df4bd2p-6
1862=0x1.94453968e752cp-5
1864=-0x1.5b75e607d717p-16
1865=0x1.95ffd443875fap-6
1866=-0x1.10a21b46e1cd4p-5
1867=0x1.16ec3b1101eep-16
1868=0x1.67a14df4cf01bp-5
1869=-0x1.113ec2d952fe6p-6
1870=-0x1.11b61daebfef9p-6
1874=-0x1.284b103b2e4f8p-12
1877=-0x1.dcd9a5440c8bp-16
1878=0x1.5b3ade18ed87fp-4
1882=-0x1.7ddfdb5491e0ap-9
1885=-0x1.d2a7e83f56553p-8
1886=0x1.a3ca54d32b7cp-8
1887=-0x1.30e306607b84cp-9
1888=0x1.597450d8d91c1p-4
1890=-0x1.289834f569821p-6
1892=-0x1.7e262a3fa7af7p-6
1893=0x1.da561c4a0f721p-5
1894=0x1.d81e207b8bf0dp-5
1895=-0x1.5185732ba926cp-4
1896=0x1.84c3fa38a3598p-9
1898=0x1.6cc11a68589b7p-6
1899=0x1.47220d94bc2bep-7
1902=-0x1.4a60f41021334p-4
1903=0x1.0190b048030f4p-3
1904=0x1.34f2bff0c65a7p-4
1905=-0x1.3a47ba24f401dp-6
1907=-0x1.1c60e80342cfdp-9
1909=0x1.ccbfafd069538p-6
1910=-0x1.7665caafc47e8p-9
1913=0x1.df632087d6e35p-5
1914=0x1.083ef13f830d3p-3
1917=-0x1.5d555af0cfd84p-10
1918=-0x1.cceeaeceb526p-13
1920=0x1.2f6416c5ffa0cp-7
1923=-0x1.5f3a16dd9435bp-5
1924=-0x1.576871cfad376p-4
1928=0x1.b6bd37f52c467p-5
1929=0x1.54e021059cb22p-10
1930=-0x1.ebcf4db7f5f22p-8
1933=-0x1.217230d56e473p-3
1935=0x1.b5d32d497c22cp-3
1936=0x1.45c09076d1b8dp-4
1937=-0x1.379123de8f276p-5
1938=0x1.0975193e4d22ep-3
1942=0x1.b07aabce7e665p-5
1944=0x1.44530cdc72b29p-5
1945=-0x1.7827c187901cfp-5
1946=-0x1.a16fd6547eac7p-5
1947=0x1.9469b00e4f6b8p-7
1948=-0x1.8a21b2865e623p-4
1950=0x1.aff7231837037p-8
1952=0x1.c059e1b59a476p-5
1955=-0x1.4b46281906184p-4
1956=-0x1.f7f0819109a0dp-4
1957=0x1.e37e4dc9d690ap-7
1958=-0x1.5dbee9ce77014p-4
1966=0x1.61d164bcc3d5bp-4
1967=-0x1.867a0254bd169p-3
1968=0x1.14d554af40d32p-5
1969=-0x1.f2c5d3dc1abb6p-13
1970=-0x1.15f9a5fbcfa28p-4
1972=0x1.e60698c839ba2p-8
1975=0x1.28292e661456p-6
1976=0x1.e21b4b1b3cf75p-6
1979=-0x1.47f9a9d019842p-3
1980=-0x1.6a8405e190b1dp-4
1981=-0x1.abeffccfa437cp-6
1982=0x1.51edfef508bfep-7
1983=0x1.337813be028c4p-4
1984=0x1.3e7a5475ce7ecp-5
1985=-0x1.ace0117eaefecp-10
1986=0x1.16d8e8af7bcfp-5
1987=0x1.125e51a8bdaf6p-5
1989=-0x1.385f016ced596p-4
1990=-0x1.514ed350b36c5p-5
1992=0x1.a81985278e662p-5
1994=0x1.de9f26e595738p-5
1995=-0x1.a30d64e2faa3cp-5
1997=0x1.0854fe771fa68p-3
1998=-0x1.a47cd32e8952fp-8
1999=-0x1.0d63eee992988p-1
2002=-0x1.da9417a163776p-10
2004=-0x1.42fd6a68554cp-6
2005=-0x1.04862c16299aep-9
2007=0x1.43c1e495c4d87p-4
2008=-0x1.3ced30b5ebcbbp-6
2009=0x1.a8f69d2721da6p-5
2011=-0x1.5d010d7925e49p-2
2012=0x1.c170860e58f2p-7
2014=-0x1.0fe6bf9203f36p-7
2015=0x1.ceff6f8a37bb2p-5
2016=0x1.bc97d07d876a3p-5
2017=0x1.c49072a6398p-12
2018=-0x1.96f9dea19f609p-3
2019=0x1.64b43e4239794p-7
2020=0x1.c06dd8481f0adp-6
2021=-0x1.89b5af785aa97p-2
2022=0x1.98539b9799e63p-4
2028=-0x1.060478842800ap-3
2029=0x1.5aa579ddaa789p-6
2030=0x1.a4b81dd510b63p-7
2031=-0x1.dc1a028f25efdp-3
2038=-0x1.443aa5a31e0acp-4
2039=0x1.9781d0b0a2555p-6
2041=0x1.49b2108aa517ap-5
2042=0x1.83a05901b7a39p-8
2043=-0x1.bf66f6f499906p-11
2047=0x1.5a0bb1d7fb5eep-10
2048=0x1.06201d26e478ap-10
2049=-0x1.39525ced6b392p-9
2051=0x1.1df3bc83db706p-8
2052=0x1.4e652c3942887p-6
2053=-0x1.be054fe526497p-10
2056=-0x1.a161656097152p-6
2057=0x1.a5207da204dd5p-16
2058=0x1.a086fd30a0293p-6
2059=-0x1.1903cc36751d8p-6
2061=0x1.88735a16a5bd1p-9
2062=0x1.82d399e611f14p-5
2063=-0x1.37120f7693dbcp-10
2065=-0x1.a0de31dd59357p-10
2066=-0x1.b9eff6b9d58a5p-7
2068=0x1.8a9ecc8680f51p-7
2069=-0x1.524fb54d6e161p-7
2070=0x1.80233888cae86p-11
2074=-0x1.4a9ccced13dc8p-12
2075=-0x1.53faa44cef1e3p-6
2077=0x1.2e3081403a8e6p-11
2078=0x1.f1cc73bf51dd1p-4
2079=-0x1.6504821cd4167p-5
2085=-0x1.056d03a989c38p-5
2086=-0x1.66601f31618c6p-8
2088=0x1.a7e14e797d4e4p-5
2090=0x1.a4b4af2d0a957p-5
2091=-0x1.51af668d234b6p-9
2092=-0x1.3c9b5e59d8e0dp-6
2093=0x1.0e08db7665f0bp-4
2094=0x1.08081385d2cc7p-5
2095=-0x1.9c5a954f93c3ep-6
2096=-0x1.9f2928443386ap-7
2098=0x1.772c926c73b6dp-4
2099=0x1.e68ca1bb98912p-9
2100=0x1.2a7a59165d0bp-9
2101=-0x1.ef29cbfa9db8cp-7
2102=-0x1.238dba50887b8p-4
2104=0x1.4b1ab420724bap-4
2106=-0x1.7992a15d4d4fcp-9
2107=-0x1.a36b41f69dc67p-12
2108=0x1.2bc806c1e8c63p-6
2111=-0x1.632b0a9e4dbcbp-6
2112=-0x1.837e2a94462b1p-3
2113=0x1.c1d11d524aebfp-6
2114=0x1.156e0ad34a5fbp-4
2115=0x1.a48dd827be0dbp-6
2117=0x1.a41b66709c27ap-6
2120=0x1.66b9a7640a91p-8
2122=-0x1.547981371983ap-15
2123=0x1.52d18bfecb82ep-12
2124=0x1.43ca3ad598c5fp-5
2125=0x1.0dd56efdfd394p-5
2126=-0x1.373e959c3e2e8p-8
2128=-0x1.86248481c17ffp-4
2132=0x1.513f0a717214dp-6
2133=0x1.fce8e7f48a8acp-6
2134=0x1.00b137d1eb70fp-6
2136=-0x1.2360ae76ae5bp-7
2137=-0x1.9d3a185704c5cp-9
2138=-0x1.3c505e193f6d8p-6
2141=0x1.84bf32c3829c6p-6
2142=0x1.9f60eb62525edp-5
2143=0x1.609e316d52b44p-8
2145=-0x1.da73d95627e0ep-5
2147=-0x1.d16ec075bae6cp-13
2148=-0x1.9990bbe536e39p-5
2151=0x1.6d9af9a9eedcfp-5
2152=0x1.5b4472973a0bcp-6
2155=-0x1.df77b1a3df7cfp-5
2156=-0x1.6176690c5a01dp-4
2158=-0x1.ae1bef3090606p-5
2159=0x1.1de7e14dbdb44p-7
2160=0x1.d43e9e2c083fap-6
2161=-0x1.6f5d225953f3ap-4
2166=0x1.22adfea517eefp-5
2167=-0x1.12f8a5b2a5922p-6
2168=0x1.20635628721ep-4
2172=0x1.174bf0ffeafcap-6
2176=0x1.9b3963005e5c5p-5
2179=-0x1.8681cf7e4cffp-4
2181=-0x1.e878c0108827ap-5
2182=0x1.3fa6aab52ee15p-4
2183=0x1.7a3f26717b64p-8
2184=0x1.12fe086bc05c8p-5
2185=-0x1.9994a3b4c06dcp-6
2186=0x1.98db14cbe20c4p-5
2187=0x1.a32fb2eed05a2p-5
2188=-0x1.fb316814cdf88p-14
2189=-0x1.ee5bd08512dc5p-3
2191=-0x1.f263abead65f5p-6
2192=0x1.1768b621c3d2cp-10
2193=0x1.3134a3ad66b8bp-4
2197=0x1.06ce4b739686cp-3
2198=-0x1.6e3c2914c5f91p-6
2199=-0x1.eb0b8f2ee3734p-5
2200=0x1.a1e7786b017c8p-5
2201=0x1.21d3bfeae006bp-6
2202=0x1.e4639864675bdp-7
2204=0x1.b7bbca654bd62p-5
2205=-0x1.481b44fc2ca17p-5
2206=-0x1.2fe4da70b9e09p-5
2207=-0x1.db11796c070cp-6
2208=0x1.312cf83aa398ep-5
2209=-0x1.351fb153487aep-7
2210=0x1.dc5964af91b35p-5
2211=-0x1.beff211b23e95p-5
2212=0x1.f407750165ce2p-6
2214=-0x1.1405cec6cd8cfp-3
2215=0x1.f33109ea68fp-15
2216=0x1.3c2ba19df6d95p-7
2217=0x1.084c322b00c08p-4
2218=-0x1.64cc388706e64p-4
2219=0x1.d5779d3e9ad9p-9
2220=0x1.409cbb0020086p-10
2222=0x1.852a4048547b2p-4
2224=-0x1.0501eee8bac65p-6
2226=0x1.67340ef066946p-5
2227=-0x1.c7f6c44918b46p-7
2228=-0x1.c372398514491p-4
2230=0x1.0d0ec79445377p-6
2231=-0x1.38a55fc80bfb1p-6
2232=-0x1.6b861cb4a38bap-14
2233=0x1.ea3c7312f924bp-5
2235=-0x1.74f19206de3d2p-7
2238=-0x1.35b604054fdf9p-7
2239=0x1.3238a9fac15ep-5
2240=0x1.5f0bad0f626e8p-12
2241=0x1.c765a7577f6bp-12
2243=-0x1.7b87f324847e2p-7
2248=0x1.5153a956f9c9ep-12
2250=0x1.6876ff2ff1fe2p-9
2252=0x1.8bf07fba19392p-5
2253=-0x1.5271bd06e3b3cp-7
2255=-0x1.4929ecc0b6bdbp-6
2256=0x1.0f545632b1e12p-12
2257=-0x1.a1cae4b339573p-11
2258=0x1.eea4a28d2930ep-12
2259=-0x1.4d855293e7124p-10
2260=0x1.5b1508a5c5eb3p-11
2262=0x1.06a75cb1a5392p-4
2264=-0x1.211e7e11e20e2p-11
2270=0x1.2f831fd26484bp-11
2275=-0x1.f2e7ee815895ap-7
2277=-0x1.90a99a791fae4p-12
2278=0x1.c5a9a978e96aap-7
2279=-0x1.b80d312d7766cp-7
2280=0x1.1a177f7a4842bp-8
2283=0x1.8d0bff285d2c5p-7
2289=-0x1.5d6adb0f2665bp-11
2290=-0x1.24e6eb5cc8f9p-16
2292=0x1.788ccf7442346p-4
2293=-0x1.4c93bbb98badap-7
2294=-0x1.ffcc41093a0e8p-5
2295=0x1.1ebdc9edcc23cp-5
2297=0x1.1204e8cb31c9ep-6
2298=-0x1.e87f228267232p-9
2300=0x1.6c516388f36dbp-7
2301=-0x1.ef8fd5d5717b8p-7
2303=0x1.2400cc02f77c9p-4
2304=0x1.d6e200d72d7edp-6
2305=0x1.0b3fda3baf90fp-9
2307=-0x1.3df307d60d05p-4
2308=0x1.12bbf684968b4p-3
2309=-0x1.0b5352e1b107fp-6
2311=-0x1.f450a799525c3p-6
2312=-0x1.395f2236e4d4ap-6
2314=0x1.9d2766d4aeca5p-5
2315=0x1.15b99280c6d95p-5
2316=0x1.16b9fd769e88ap-5
2318=0x1.4848c07681403p-6
2319=-0x1.5b1ef773a77f1p-5
2320=-0x1.15ee4d36e46cap-13
2321=0x1.ef4877b6e5eb2p-6
2322=0x1.7dc9ed512d607p-7
2324=-0x1.9588ae002aa04p-5
2325=-0x1.982b42a7e4c06p-5
2327=0x1.90b0aa904eb81p-5
2329=0x1.2d879dca90fa2p-6
2330=0x1.0cd80e232ddfdp-9
2331=-0x1.40e4886c31f77p-8
2332=0x1.d51f4f781b751p-6
2335=-0x1.32b294bfc1644p-10
2336=0x1.bbc2d53d89a7ep-13
2337=-0x1.213283fd81692p-4
2338=-0x1.146f286027d38p-7
2339=0x1.33bc996fa1014p-14
2342=0x1.c176450a8f09p-7
2344=0x1.08a985390fdb8p-7
2345=-0x1.461b5d5e6d73ap-5
2347=-0x1.c759da730edc8p-10
2348=-0x1.a4ea3af79a902p-9
2349=0x1.03bb4cbfcd91p-12
2350=0x1.659b56c369907p-5
2352=0x1.09476a18eac7ep-5
2353=0x1.457bd72d84a92p-7
2354=-0x1.560a2a91eb57dp-7
2355=-0x1.6e7a0eaffb28p-5
2356=-0x1.3a8db15aad369p-5
2360=0x1.25bf1dcb93f8ep-4
2362=0x1.4a169f8b266f4p-7
2365=-0x1.6d7035d0f9c5bp-5
2366=-0x1.02937f9cad12bp-4
2368=-0x1.d686fde2e1cedp-9
2369=0x1.46b9a05e815adp-6
2370=0x1.7c3c6e121d8b8p-6
2371=0x1.61279fc68b79bp-4
2372=-0x1.7edc7a0688159p-5
2376=-0x1.0b20c2af87a64p-5
2377=0x1.303eb9458172bp-6
2379=0x1.2157e58091a7p-7
2380=0x1.4377ac73b0216p-7
2381=0x1.2064716bcdf8ep-4
2382=-0x1.7cfd080624191p-3
2383=-0x1.7ad44d91813e1p-11
2384=0x1.dfd34c03a2bcp-10
2386=-0x1.c3f0f99e75ae3p-4
2387=0x1.0a62479a7ef82p-6
2391=-0x1.acd48a29492e8p-4
2392=0x1.8145b435b3222p-8
2396=0x1.1ae0db66b41c4p-5
2397=0x1.270bda1007d09p-4
2398=-0x1.984a9628469bfp-6
2402=0x1.b968c0e53471fp-4
2404=-0x1.f3297b694d213p-5
2405=0x1.6f59f124ccc7ep-7
2407=0x1.d674f22c4a562p-5
2408=-0x1.2d4bbb1afd95dp-5
2409=-0x1.fa486a653dd9cp-8
2410=0x1.83df545a79cd4p-6
2412=0x1.7e1363c55bdb8p-6
2414=-0x1.156cc9ce9e6f2p-3
2416=0x1.44bcce921f378p-5
2417=0x1.80156c72b78c8p-4
2418=-0x1.cd8b018b958cp-4
2420=0x1.f53cd6fb005c4p-4
2422=0x1.fa4e4a668cbf6p-8
2424=-0x1.cdb01288871cbp-5
2426=0x1.ccbe6e2bf82a4p-7
2428=-0x1.c01eef4d9b368p-6
2430=-0x1.3f08a964c88cp-9
2433=-0x1.1cfaca3f87529p-7
2435=0x1.ddaf86ca05e2cp-9
2437=0x1.ac0bcf202dadap-6
2438=0x1.723d29e9a60c2p-11
2439=-0x1.fa50890bdd61fp-7
2447=0x1.3c63c3665f3a5p-8
2450=0x1.269fa7b01948p-14
2452=0x1.76e5328595a33p-8
2453=-0x1.9f6b6d2e6baafp-11
2455=-0x1.19366a2d15b44p-5
2457=0x1.018acad95a464p-6
2458=-0x1.311f88965c212p-6
2460=0x1.6535d766c09d9p-12
2461=-0x1.7c62f2597ae7dp-12
2462=0x1.ba41646928afcp-4
2465=-0x1.3bf70981f3338p-4
2468=0x1.292b623f90a93p-11
2469=-0x1.2e26a3dbd93bap-12
2470=0x1.5cbd51b53f97ep-8
2475=-0x1.9b5d36fcd2c76p-4
2477=0x1.b33d3c8dac5dcp-4
2480=0x1.d7ce024c81ca4p-5
2481=-0x1.2232d471e925ap-8
2482=-0x1.a76ca1ccc0748p-7
2483=0x1.932f52ff8dc0ap-7
2484=0x1.01501588880cp-8
2485=-0x1.93ec7c92bb226p-5
2487=0x1.520e2a2756014p-7
2490=0x1.40d4ae209eec4p-5
2492=-0x1.d03923fe244f8p-6
2494=0x1.7c6da4ad7a6e2p-7
2495=0x1.2e58a4bed480ap-5
2497=-0x1.92b6d56f1fd21p-11
2498=-0x1.19d578c6aa19cp-6
2500=0x1.edf354ab3e99ap-6
2501=-0x1.937528fb845aep-7
2502=-0x1.6dc4dc971e1ccp-7
2503=0x1.2ff5b207d1fcp-5
2504=0x1.239a2735038ffp-7
2505=0x1.cdaaba5e43a8ap-5
2507=-0x1.180170030fb1bp-5
2508=-0x1.2e8a31ebebaaap-11
2509=-0x1.2724f84a08affp-7
2510=0x1.861b694c5782ep-5
2511=-0x1.d582a45a04a8p-6
2513=0x1.68647dac1f19p-5
2515=0x1.d7cda66270495p-4
2516=0x1.359b3657023f1p-16
2517=-0x1.a6974ca8569cep-4
2519=-0x1.0776f7d2024aap-6
2521=-0x1.ccf7c7cf8322ap-5
2524=0x1.d2740518d912p-13
2525=0x1.3bd20da73033cp-4
2527=-0x1.b347d0939efccp-6
2528=0x1.027226fe98f11p-5
2529=-0x1.645e6e14e03c1p-4
2530=-0x1.74bb0ef7d13b8p-5
2531=0x1.325ff0de74f9cp-6
2537=0x1.9a8b5454aad44p-4
2538=-0x1.4a64dfdeb5a5cp-4
2539=0x1.43ea1e7e3825fp-3
2540=0x1.0a525b10766d4p-4
2541=0x1.fd858a5701474p-11
2542=0x1.985988cc107eep-5
2545=-0x1.67cd32e617ba7p-6
2546=0x1.2714c314c44d6p-6
2547=-0x1.3585495af725ap-4
2548=-0x1.646c981b1a39ep-9
2549=-0x1.6a218f0340341p-5
2550=0x1.b724cdecab1f6p-4
2552=0x1.a3f7952f8fcf6p-6
2557=-0x1.535468a40dbe1p-6
2558=-0x1.5c15fa5da986ap-9
2560=0x1.20ad17991d733p-3
2561=0x1.53bd591443532p-9
2562=0x1.4e4441a314eb5p-9
2565=-0x1.af81486bbd875p-5
2566=-0x1.002c9846e495ap-7
2567=0x1.0a057464a5a8fp-13
2568=-0x1.c1ec0ae7d9d16p-6
2569=0x1.15a7e7bc5b524p-12
2570=0x1.e8aacb0056a17p-4
2571=0x1.153989f46863p-10
2576=-0x1.ee44c14cdbf32p-6
2578=-0x1.b4fd6824d3996p-9
2580=0x1.3891675f54378p-3
2581=0x1.678e66cdec378p-3
2585=-0x1.398ffde02dba9p-11
2586=-0x1.2f5ba52bbea7ap-7
2587=-0x1.051fbb585fa68p-10
2588=-0x1.fb4243f800fp-11
2589=0x1.24dfdfb62cb63p-6
2590=0x1.14bf49f62e253p-3
2591=0x1.3f11e877b1faap-4
2596=-0x1.c35bead820243p-6
2597=-0x1.4d21a27a895b6p-5
2598=-0x1.6e8714c8700bcp-12
2602=-0x1.6b5bd2e4179fcp-5
2604=0x1.35d22f11453ap-4
2606=-0x1.2d6c5e97540cap-4
2607=-0x1.85742dc13f55ep-7
2608=0x1.137ad640a2ce6p-8
2609=0x1.f5c6e33bed9f7p-6
2610=-0x1.1900967fe7066p-4
2611=0x1.f9f23f11c3392p-5
2612=-0x1.1f816b61ffd8ep-5
2614=0x1.15047fd590ee9p-4
2615=0x1.5790c7edab03ep-8
2616=-0x1.44b618336d826p-5
2618=0x1.7e964208107a9p-8
2619=0x1.f312e78ac8ac8p-7
2620=0x1.0b8b94f5fc267p-4
2621=-0x1.65bf7682a54ddp-10
2622=0x1.e75f3e23551c6p-9
2624=-0x1.427db82fbc9f1p-4
2625=-0x1.79e22b550cfe6p-7
2626=0x1.6ebaf32e96ef6p-6
2628=-0x1.be807af4f18a2p-9
2629=0x1.a7e5670403fb2p-13
2630=-0x1.a1a5c134a7c7p-9
2635=0x1.bc46a818e1db6p-6
2639=0x1.ae7d599e69c88p-13
2640=0x1.7ea55f5250a4p-11
2642=0x1.1dc1d9ae0e85p-4
2643=-0x1.5076fb185c01fp-4
2649=0x1.0245768feef58p-12
2650=0x1.19244c8adbe12p-4
2651=-0x1.bde031074ee4p-13
2652=0x1.2802575a317bp-4
2654=-0x1.6e102ca9a71c4p-5
2655=-0x1.0c92eb1351114p-4
2657=0x1.64dd020caee7p-9
2660=0x1.fba2bb30d0549p-5
2662=0x1.983518dcc3779p-4
2663=-0x1.2d057ce4fbd74p-10
2664=0x1.2b93da93040ep-9
2665=-0x1.1e12f4945befp-5
2667=0x1.0a9d30a585048p-6
2668=-0x1.85b85d5d990fep-5
2671=-0x1.201897d57b1a8p-12
2675=-0x1.d9824ba0904dep-6
2677=0x1.93cf590983707p-4
2678=-0x1.add536669fbc9p-4
2679=0x1.6c785e770b956p-5
2682=-0x1.b965a8a5ac58ep-8
2685=0x1.3d2c91d082269p-6
2686=0x1.0ab9776e1ef4ep-6
2687=0x1.bd913a79849bcp-6
2688=-0x1.7b44d6ec9c46dp-6
2690=0x1.a30f52988ca7fp-4
2692=-0x1.1e960329c6985p-5
2697=0x1.45621ca67c976p-6
2698=-0x1.de802c677f271p-6
2699=-0x1.31183ff5919bep-6
2700=0x1.f4b8c06cdb7fcp-5
2701=-0x1.a22feb079ed29p-8
2703=0x1.69a644841ef1ap-9
2704=-0x1.9377033cc38b4p-13
2705=0x1.9548296b4f4b3p-4
2707=-0x1.a89dbc2303538p-10
2708=-0x1.4856020b87cfap-7
2709=-0x1.003f8c9a9d066p-3
2710=0x1.0cd223ced5a9p-4
2711=-0x1.c0d39b74dc43ap-5
2715=0x1.d0b20ec9f350dp-4
2716=0x1.a483408f2a3efp-15
2717=-0x1.89d1978e53e46p-9
2718=-0x1.1b5a8c484281ap-10
2719=-0x1.2eb113b66f7bcp-4
2720=0x1.107fdec27cf1dp-5
2721=-0x1.4977912255aefp-3
2722=0x1.012b7e47ae58ep-7
2723=0x1.bc13fdde795eep-7
2725=0x1.9e40f2a788c86p-4
2726=-0x1.328ea325e4f15p-8
2729=-0x1.c9cb1f351205fp-6
2730=0x1.0acf10b244783p-4
2731=-0x1.84731436cb533p-5
2732=0x1.b614e771e1a85p-7
2734=-0x1.432750d6a36a9p-8
2735=0x1.ced2bb9f7a3efp-4
2736=0x1.3a890923e622bp-5
2737=-0x1.4222dcb075a01p-4
2739=-0x1.167d86271db1ap-3
2740=0x1.1a8d8e9779008p-5
2741=-0x1.79b5451cd5663p-8
2742=0x1.10b9751e1592bp-5
2745=0x1.74115f562708ap-5
2746=0x1.353c192e7c024p-5
2748=-0x1.767e67cf698c1p-9
2749=-0x1.8713f7b9b1c25p-4
2750=0x1.1940bbb4998fap-5
2752=0x1.1610ef28377a1p-5
2755=0x1.2d29d452655fp-9
2756=0x1.785eed51b8ccbp-7
2757=-0x1.cbb2f4a777b93p-5
2759=-0x1.0e694d060fc8ep-2
2760=0x1.7d273cd1c98f9p-5
2762=0x1.e04a7627848p-5
2767=-0x1.2a0d9b3e9005ep-4
2769=-0x1.229022a32d3cap-9
2770=0x1.ae035638ccf5dp-4
2775=0x1.efe031a2dfee5p-9
2777=-0x1.d00fa976f6824p-13
2779=-0x1.bbfe5e27fa041p-10
2780=0x1.374dd9ad3ec3ap-3
2781=0x1.21e768f7e87dap-6
2782=-0x1.089d7e1c9a08p-5
2785=-0x1.63e1f92c00b63p-6
2786=-0x1.53141e295a2bp-5
2787=-0x1.8b073ea2d9889p-9
2790=-0x1.a2c8671e45e76p-4
2791=-0x1.80398f88381f2p-7
2792=0x1.943033d03fb38p-11
2795=0x1.8622f362f8654p-5
2796=0x1.f7375e0472f73p-3
2797=0x1.2ee67b10abb28p-9
2799=0x1.07690e4b9eb99p-9
2802=-0x1.133ffa8a62a3ap-11
2803=0x1.549c6ffebbb7cp-12
2804=0x1.187e7fc501b0cp-4
2805=-0x1.8903635accedcp-12
2806=-0x1.2b07a78a1394cp-5
2807=-0x1.052d6cf1c9d29p-9
2809=0x1.fc9dac45cb77ep-6
2810=0x1.19643cd14331ep-4
2812=0x1.07433e71b6409p-5
2813=-0x1.33eb7ea7de89p-4
2814=-0x1.9ba8c7c784858p-8
2815=-0x1.00db9184d746dp-5
2816=0x1.d7acf8e5c9556p-6
2817=0x1.10b04f5c83e7ap-6
2818=-0x1.a6c60eb43444fp-7
2819=-0x1.67b3956c3ffd4p-5
2820=0x1.c53d0c75a26ecp-5
2824=-0x1.04d764021c699p-4
2825=0x1.4fdf595cda916p-10
2826=0x1.538ed53fc7266p-6
2827=0x1.090c478b1107cp-13
2828=-0x1.045c44f2096cdp-5
2829=-0x1.001383e65da9ep-8
2832=0x1.50710a669218ep-4
2834=0x1.bbacd1f1f022fp-8
2836=0x1.b60cf915dda8cp-10
2837=-0x1.55cd38ddff5f9p-5
2838=-0x1.30376860d580dp-9
2839=0x1.15042e0240daap-11
2840=-0x1.49a33adbdc4a4p-5
2842=-0x1.9f003abb13b82p-3
2843=0x1.9ce726e624526p-6
2845=0x1.a2343e4f72c26p-4
2846=-0x1.b51b9af217c1dp-6
2850=0x1.d4fa40a19ba5cp-5
2852=0x1.a5724775cd815p-4
2853=-0x1.3fc15b9414112p-10
2855=-0x1.869486b72524dp-5
2856=0x1.f42cd6adef6d7p-6
2857=0x1.3f222dbbc90c6p-10
2858=-0x1.d399a1177107cp-10
2860=-0x1.61fc44a5b6f3fp-3
2862=-0x1.658b0a00edb94p-3
2864=0x1.104a718a5ebabp-5
2865=0x1.cadc3c38a499p-6
2867=-0x1.49ddde6f72776p-5
2869=0x1.1efbf5c238e37p-4
2872=0x1.c7594b96c8b9ap-8
2874=-0x1.fb1c22dce18cep-4
2875=-0x1.9a96efb02e33ap-7
2876=0x1.3453a797f0d3bp-5
2877=0x1.62ce8cb184222p-3
2878=0x1.b4ab2c31fef2ep-8
2879=-0x1.2bd4bad7ddce4p-4
2880=-0x1.aca1f2bf89384p-5
2883=-0x1.17c7cbd954794p-9
2884=0x1.ac89274a20204p-11
2886=0x1.5d3e499df7323p-4
2887=0x1.ce66e11aa0fb6p-4
2890=0x1.a87f87fe01fa8p-6
2891=-0x1.918e7909e7354p-6
2895=0x1.4cffb2d39dacfp-4
2896=0x1.e008e46c0aa09p-5
2897=0x1.d81ec50d2475dp-5
2898=-0x1.e8de6c96e4124p-10
2899=-0x1.f291a784e5476p-5
2900=0x1.e61d25cfbc965p-7
2901=-0x1.50f672878090cp-5
2902=0x1.175abb8ffcaep-7
2904=-0x1.75d274ee13542p-4
2905=0x1.5f588d70e5c72p-3
2906=0x1.db70c94d2c56ep-5
2907=0x1.6c4235dabb488p-12
2908=-0x1.52d4e66833fdcp-5
2909=-0x1.2b035798d4868p-7
2910=0x1.1178f594855ap-5
2911=-0x1.d993d70154e4p-2
2913=-0x1.631a5385469a4p-6
2915=0x1.6252bfd0f79e1p-3
2916=0x1.56ba7641bc86p-4
2917=-0x1.cf5c505bbda7ap-11
2919=-0x1.3625098cd97fcp-10
2920=0x1.a1e374af1829ep-6
2921=-0x1.a8069a246d558p-5
2922=0x1.c12853d16a592p-7
2923=-0x1.21e5e23618fap-7
2924=-0x1.be8f445620601p-5
2925=0x1.5127a7b91d815p-3
2926=0x1.39ffd07eb513ep-4
2927=-0x1.c8d648a734775p-10
2928=-0x1.08b9359bafbbcp-5
2929=-0x1.f99a946d3b97bp-10
2930=0x1.12628b35cfcfap-5
2932=0x1.9236b75d73c13p-5
2934=-0x1.c1c1b58af8833p-5
2935=0x1.65aa79fbda28dp-3
2936=0x1.e5b8f1d694a9ep-5
2937=-0x1.94292429af0b2p-5
2938=-0x1.1b04d660c9fd4p-4
2939=-0x1.f27a79a76f794p-4
2940=0x1.fd230f14563e8p-5
2941=-0x1.e8835dbb8a874p-5
2942=0x1.20531cf092a6ep-3
2944=-0x1.b04b35969f76dp-4
2945=0x1.d9963647f03dep-4
2946=0x1.31c884cfa50bep-4
2947=-0x1.6b709cda28ae7p-7
2948=-0x1.5e601d2f9f27ap-6
2949=-0x1.37fb49ee90ae4p-3
2950=0x1.85703aa6b730bp-4
2952=0x1.2ca715dd044b3p-3
2954=-0x1.f4fdbb0b56a03p-5
2955=0x1.266588e324858p-5
2956=0x1.91434e0516a85p-5
2957=-0x1.197cf1e144165p-4
2958=-0x1.6142e9c6b93c2p-5
2959=-0x1.f1d1ff5e2ca86p-7
2960=0x1.2c1aa1bee772fp-3
2962=0x1.810b7e4b9dc68p-6
2965=-0x1.8786b660d5c9cp-8
2966=0x1.cbcd726aa335ep-15
2967=-0x1.f2908e1c5a8aep-5
2968=-0x1.3be6fcfafcb3p-7
2970=0x1.fae3d5c5df73ap-4
2971=0x1.393cde3f84e52p-7
2972=0x1.5cb7f175be632p-6
2976=-0x1.05338e3fc5fdep-10
2977=-0x1.6c43b7db94ae1p-4
2979=-0x1.29b6145e85c64p-11
2980=0x1.4655fc52413ffp-3
2981=0x1.07766f5d6b3cbp-4
2984=0x1.5071951c4312dp-5
2985=-0x1.cf15e02039b1ep-11
2986=-0x1.8cf9123796291p-4
2987=-0x1.7bc7a1f7f77d4p-9
2988=-0x1.8d76861774f47p-6
2989=-0x1.20e190d838e73p-5
2990=0x1.2c57126c5ee9p-4
2993=0x1.27d0ebe93b363p-8
2994=0x1.3cd601d2b139p-5
2995=-0x1.82643f4477eadp-4
2996=-0x1.2dc7ef0aeacc9p-7
2997=-0x1.0fb24ae53dabbp-9
2999=-0x1.f3ec909d7a21dp-7
3000=0x1.f4a114a1e2a4ep-4
3001=0x1.030a275a15f08p-7
3002=0x1.56c049a3beaf6p-3
3004=-0x1.4c4a257d21e3ap-4
3005=-0x1.cd84ad4f7c609p-5
3006=0x1.aedd4bcf87974p-6
3007=-0x1.568705f70bfcep-4
3009=-0x1.8f9b962db380bp-6
3010=0x1.289739e9546cbp-3
3012=0x1.921e92c6b267ap-4
3013=-0x1.8e2fb842735d4p-8
3014=-0x1.e1f75ead02694p-4
3015=-0x1.998854b6446bcp-5
3016=0x1.c02ebeede871p-7
3017=0x1.89ee176f11fdbp-7
3019=-0x1.15b5225fdb37p-5
3020=0x1.3aa894bb7528ap-3
3022=-0x1.79863d97fb693p-7
3024=-0x1.fae85880a147ep-6
3025=0x1.2078834d3a7ddp-7
3030=0x1.dadf933a5a408p-11
3032=0x1.30e92c681f255p-4
3035=-0x1.1d2c12dd5c3c1p-5
3036=0x1.584207427968fp-4
3037=-0x1.fffb7e6492debp-4
3038=-0x1.014363dcbef21p-9
3040=0x1.a6cab5a9eb2ddp-6
3041=-0x1.def7523786a85p-7
3042=0x1.d789b176fb16ep-5
3045=-0x1.0012257e80186p-4
3047=0x1.eb51f03b6dd48p-12
3048=-0x1.0a657796658a6p-9
3049=0x1.8c3ca90932564p-14
3050=0x1.fbb1d7c3ed26cp-5
3052=0x1.b292e6af43b99p-4
3053=-0x1.497d191959423p-4
3055=-0x1.29006ae9aa96cp-4
3056=0x1.dc7a49c9eccd1p-6
3057=0x1.475ada1457102p-13
3058=-0x1.213ec70618acep-9
3060=0x1.f3b72e7e9c02p-13
3062=0x1.5efe565cfe2a9p-4
3064=-0x1.daed7339f1445p-5
3066=0x1.0da85b78f82b1p-8
3067=0x1.24d538498884ap-6
3068=-0x1.c0935b77af9eep-10
3069=-0x1.73c1a8c5865c6p-7
3070=-0x1.dda2ca772429p-8
3072=0x1.abdba38e832b4p-10
3073=-0x1.4fee53bfe70ecp-5
3074=-0x1.ed574f194eb2ep-4
3075=0x1.672c9db3e4226p-7
3076=0x1.4232c3e02481dp-5
3077=0x1.9f892b62ddb22p-4
3078=-0x1.a1b5d5025d0ccp-10
3080=0x1.6a2467fa877bcp-9
3083=-0x1.7e59bfd66dd1ep-5
3084=-0x1.46c0aa250cdbcp-4
3085=0x1.fb7afe37bee52p-6
3086=0x1.45ba0417b6037p-5
3087=0x1.e34e51455921cp-6
3088=-0x1.6707b14719631p-10
3090=-0x1.49c13a520e2f9p-6
3093=0x1.277759a42d4f9p-4
3094=0x1.4feb48a675b78p-3
3095=-0x1.e3c622cfb2508p-5
3097=-0x1.bdb06b752d336p-4
3098=0x1.b5fa8f01ecc4fp-6
3099=0x1.345d9631f545cp-6
3100=0x1.7427be674865bp-5
3101=-0x1.4fb6f7b98873fp-6
3102=0x1.70b86b055dc3cp-10
3103=-0x1.f0c2e95c0b7e2p-5
3104=-0x1.5bbdff091ec16p-3
3105=0x1.779e57352739ep-4
3106=0x1.c0f54f0fba4e6p-5
3107=0x1.aebd1c2986904p-4
3108=-0x1.f4810b267e336p-10
3109=-0x1.2b6e0521ad55cp-5
3110=0x1.493a4a555a70fp-4
3111=-0x1.e67d968b28d58p-7
3112=0x1.48314a1181077p-5
3113=-0x1.c97b5cf23730ap-4
3114=-0x1.996436ef0df3ap-3
3115=0x1.b35450600bc7ep-4
3116=0x1.a9b3924382446p-5
3118=-0x1.5844e410f10c3p-5
3120=0x1.8cad7cf701d2ep-6
3122=0x1.c12b83f819aa9p-7
3123=-0x1.cc143cb00a2a6p-4
3125=0x1.fd18259973347p-4
3126=0x1.4e9288584c8f2p-4
3127=-0x1.956555da6b754p-8
3128=-0x1.58fc34532737ap-9
3129=-0x1.b8399cd218762p-4
3130=-0x1.c4751742dbf08p-5
3132=-0x1.49180342dcec8p-3
3133=0x1.45adcf34a10ddp-4
3134=0x1.540e7954ae6e8p-4
3135=-0x1.220ebd303d912p-3
3136=-0x1.a04d3f131bf8cp-4
3137=0x1.a980eb5762febp-5
3138=0x1.1bc849c1d71b8p-5
3139=0x1.2f97487dd9367p-4
3140=0x1.5011056805a3fp-4
3142=0x1.d4cd518f57779p-4
3143=-0x1.33dbb2b0f539bp-6
3145=0x1.c05d1a8c5f83fp-4
3146=0x1.3476b84d4b7aep-5
3147=-0x1.e21a011a7b97dp-5
3148=-0x1.fee161b51d09cp-5
3149=-0x1.8007c6971088ep-10
3150=0x1.54731f26a9e08p-4
3152=0x1.e581ee6b56bddp-4
3153=-0x1.01735c5c7a20ep-4
3155=0x1.1da6f0f93e4a5p-4
3156=0x1.37e0e79ec9591p-5
3157=-0x1.f21d5ccad0a78p-4
3158=-0x1.1d67d1d26f0cp-4
3160=0x1.0f9267ce811ebp-4
3162=0x1.213a8e180388p-9
3163=-0x1.ece303bfd5e7cp-11
3165=0x1.fa2639e9fff83p-5
3166=0x1.3ea4f9499db5ep-5
3167=-0x1.5f2b9d4a01dcfp-4
3168=-0x1.7f9998199235ap-4
3169=-0x1.4cea590cfac94p-6
3170=0x1.25e2385bb520fp-3
3172=0x1.5ccf6c6c16cf3p-7
3174=0x1.28c6be45695b4p-6
3176=-0x1.30ecdf97e7f86p-6
3177=-0x1.6c9e0ded611dbp-6
3180=-0x1.0d8ebe42f5b64p-2
3184=-0x1.e6ba2a743335dp-5
3185=0x1.fb0a73938d775p-7
3186=0x1.6a9f6b4a58188p-4
3187=0x1.725ba443d9438p-10
3188=0x1.b3b556b08447p-7
3189=0x1.c8ec9d66c4a7p-12
3190=0x1.5fff1f5f97b12p-3
3193=0x1.25ae0bfef9cefp-12
3194=0x1.6896a2859977ep-4
3195=-0x1.ae2f21ff265cbp-4
3196=-0x1.054157d64b078p-5
3198=-0x1.51e34d6960ee6p-6
3200=-0x1.edbf16a09936ep-3
3201=0x1.2bd3bfaba26fcp+0
3202=0x1.38e0771db466fp-5
3204=-0x1.47d0d0e955e87p-2
3206=0x1.1b3fbfee59b1p-4
3207=-0x1.3ac0393fa3492p-7
3208=-0x1.59920e4184ad3p-1
3210=-0x1.ee73799c996cap-6
3212=0x1.f7b687950fc53p-2
3213=0x1.2968e38aabb54p-6
3214=-0x1.1bf411d7330bp-9
3217=-0x1.e3ae42b1b2a4p-6
3219=0x1.6941c056b3c42p-1
3220=-0x1.6b6e911a30d6ep-4
3221=-0x1.57a7a04d41db9p-6
3222=-0x1.71c4468681177p-3
3223=-0x1.db1ac293d689ep-3
3224=0x1.2a552493bae14p-1
3225=0x1.1bc8ebafea95ap-2
3226=-0x1.4dba022e838bep-2
3227=0x1.87217f994238cp-2
3228=0x1.9ba398305ac72p-5
3232=-0x1.128b89f05db7ap-5
3235=0x1.27b82226a8089p+0
3238=0x1.6b0e1327e3e86p+0
3240=-0x1.5a4f03f24fbd3p-3
3242=0x1.dd28daef84ab4p-2
3252=0x1.2228c72a6ca76p-2
3256=0x1.53df54980b1dp-7
3257=-0x1.9f8580816f2cp-7
3259=0x1.86367ed0d914cp-9
3261=-0x1.444be08afe85p-4
3266=-0x1.0d623510f21dap-4
3267=0x1.01bea58307f38p-3
3268=0x1.087d9cbfd4aa7p+0
3270=0x1.bca7a10cb27a4p-3
3271=0x1.3cca57f9c0f67p-8
3274=-0x1.ab1daba7c9693p-5
3275=-0x1.4e019209f6901p-3
3276=0x1.eaf96a60be55cp-7
3277=-0x1.85d706752c00dp-6
3278=-0x1.3b442c36aaba3p-2
3284=0x1.86cd0120187b9p-2
3285=-0x1.20e3573354e5dp-4
3290=0x1.44fa98b278ed2p-3
3292=-0x1.23020fa610602p+0
3293=-0x1.9e8dc7b5133bdp-7
3295=0x1.32b7198166955p-5
3298=0x1.0519d3534a97bp-1
3299=-0x1.20a7859632d4p-1
3304=0x1.b8e6057a465e4p-4
3310=-0x1.dd87c9852aa78p-5
3311=-0x1.2a4e08e83f248p-6
3312=-0x1.cb67f59184a95p-15
3313=0x1.62869222b26b3p-6
3314=-0x1.a3edd3dd0a2cp-14
3315=0x1.b7db1887bb018p-8
3319=0x1.680dde78c8e5p-6
3320=0x1.42713932bd8abp-4
3324=-0x1.ee6e334ac40cdp-6
3325=-0x1.3a5d9b51de4dp-7
3328=0x1.9ac0b7326243cp-4
3334=-0x1.8c484c6454282p-5
3338=0x1.33c07acd9eccbp-6
3339=-0x1.ad84866bb620fp-9
3351=-0x1.b804b2b6327bcp-7
3354=-0x1.a19224c871326p-6
3355=0x1.9776435db08p-6
3363=-0x1.06e763f5c4af9p-3
3365=-0x1.35a09e501984cp-14
3366=0x1.5db8a9535861p-5
3367=0x1.43b090e321aeep-6
3373=0x1.23448c4ff00cap-3
3374=-0x1.84ae1b0d07be6p-6
3375=0x1.e3eeac19cfb47p-6
3376=-0x1.8fe7f4f346e9bp-8
3377=-0x1.dde72a1d8574p-10
3380=0x1.25ee843a3d6a2p-9
3382=-0x1.ada8646744596p-13
3383=-0x1.01006e131e747p-3
3384=0x1.66db4811168b1p-5
3385=-0x1.8e1f95b9fd8edp-6
3386=0x1.a3ab800674263p-6
3387=0x1.77ea9f6c3b318p-7
3388=-0x1.ce7fee1fa5c2cp-9
3390=0x1.454b1108507b7p-5
3392=-0x1.ddc17e94b8524p-11
3394=0x1.89dfab754ea7fp-5
3395=-0x1.18d96268797efp-6
3396=0x1.8e548b758afeap-5
3398=-0x1.6e49c797dfaa9p-9
3400=-0x1.6876ea8e95296p-4
3402=0x1.8b1938c938152p-5
3403=-0x1.921efd4dac223p-4
3404=0x1.d98b53c35f9bap-5
3405=-0x1.ee6d4794f4443p-5
3406=0x1.d93a579eb3774p-7
3407=-0x1.68b01084560aap-5
3408=0x1.25b6d7ec0e5efp-5
3410=-0x1.b85a38fb337eap-6
3412=0x1.5a1d4778bfcb6p-5
3413=0x1.42fa915cd253ep-4
3414=-0x1.64b46ad6d6b34p-3
3415=-0x1.4bfd2292ca262p-6
3417=0x1.43b6e06d6ab52p-10
3419=0x1.a3bee044825f3p-6
3424=-0x1.6ffe2bfb1ef62p-13
3425=0x1.7fa39da571f8bp-6
3427=0x1.b0d51730c0212p-9
3429=-0x1.8c64a4b200fbcp-10
3430=-0x1.68982881805aep-6
3431=0x1.3844fc8d22a1ap-10
3434=-0x1.2916a1c765efep-6
3435=0x1.147a229f545ddp-5
3437=0x1.a8c67392453p-16
3440=0x1.62488e06f561p-11
3443=0x1.da9544324e2aap-4
3444=-0x1.f2dfd00634402p-4
3445=0x1.3af0cb230341ep-5
3449=-0x1.8fe7cec73b31p-12
3450=-0x1.b95200c250803p-6
3451=0x1.7328f27a4705dp-7
3452=0x1.3a11fd5718b16p-8
3453=0x1.bc4d7474a395dp-4
3454=-0x1.2fdeeefc2df5dp-4
3455=0x1.d6045ef99ce74p-4
3456=-0x1.9e5fe854fef3p-4
3457=-0x1.229742bc8e35p-5
3459=0x1.e89dadba63668p-15
3460=-0x1.fcd3b573f08bep-5
3461=0x1.226a0b355cdbbp-10
3462=0x1.a326ce8fdf637p-7
3463=0x1.1699e1bd6f88bp-3
3464=-0x1.a907e615e4361p-5
3465=0x1.a984bd0469612p-4
3466=-0x1.deb99de680d6bp-3
3470=-0x1.0c05eb5bef01cp-4
3472=0x1.59862f34eba5ap-5
3473=0x1.dcbbace52a742p-4
3474=-0x1.3eeacae67a88p-6
3475=0x1.16f3f11d65c3ap-4
3476=-0x1.1ab416c0b71d9p-3
3477=-0x1.102b9759bdb94p-4
3478=0x1.0249bb19cbe2ep-6
3480=-0x1.3180f0dee25b4p-4
3482=0x1.ca98a47bb3c4ep-4
3483=0x1.b712fb41ea2bap-5
3484=-0x1.9dbbdbd27d81ep-4
3485=0x1.bd6db813f2c8ap-4
3486=-0x1.07ebccb08bd56p-3
3487=-0x1.4a2baa085f768p-4
3489=0x1.ab884fad06b6p-6
3490=-0x1.6bdbe55bfb3c4p-3
3491=-0x1.1fae28070791ep-3
3492=0x1.35f0efb1e4b62p-5
3493=-0x1.ff2f071bfed08p-11
3494=0x1.9873ccea21c4dp-6
3495=-0x1.b5c26deaef054p-12
3497=-0x1.c1e84ee8eadf2p-11
3498=0x1.05d8dfb87e228p-6
3499=0x1.0016320b2cdd5p-4
3500=-0x1.de873e6ff55f3p-5
3502=0x1.2422758377c12p-5
3503=0x1.15d1b6fddeab9p-8
3504=-0x1.06ac68147ae7p-4
3506=0x1.ea55b8833bbp-6
3507=-0x1.adf19e9414a62p-10
3509=0x1.c097ade6c4da9p-6
3510=-0x1.4b139f77dc158p-5
3515=0x1.fbc8605d3f09dp-7
3519=0x1.494f1135282d6p-6
3523=-0x1.9b4ccbf86fd5dp-10
3525=0x1.920eab3fa5b26p-5
3529=0x1.307c27a60f6p-4
3530=0x1.b5016181bfc08p-12
3536=0x1.70b4427d567acp-5
3537=-0x1.3dee7456172ap-10
3538=-0x1.9eaa733d56ac2p-8
3540=-0x1.264eef4c612bap-5
3541=0x1.5fa2e5001842dp-4
3542=0x1.417909c462ef1p-10
3543=-0x1.44007a515b2p-15
3545=0x1.ee47254f402eap-6
3547=-0x1.5bec4e9e0320fp-6
3548=0x1.12cde54f6c281p-9
3550=0x1.6905bd3188c37p-5
3551=-0x1.e592aff2d5d09p-7
3552=-0x1.3234612ce036bp-6
3554=0x1.d15bdd87e60d7p-7
3555=-0x1.845bcc7ee388ap-4
3556=0x1.865679973101ap-4
3557=0x1.d0e80acafc11p-4
3558=-0x1.da3933c759d24p-6
3560=0x1.9a77c64803559p-5
3561=-0x1.5dadbc1d93a26p-5
3562=-0x1.a7f534d3a6e44p-7
3565=-0x1.548d442dd4913p-4
3566=0x1.960915015f496p-4
3567=0x1.beaa1611f609bp-3
3568=-0x1.109fe9488de5dp-4
3569=0x1.cf10214cc4abcp-8
3571=0x1.12c70191d6a1ap-11
3572=0x1.82dcf9322876fp-10
3575=0x1.a7d33fb31cdf7p-5
3576=-0x1.1103e8ea810e3p-3
3577=-0x1.a1d5b3e95f587p-4
3578=0x1.01101360f44bp-4
3579=0x1.2ec6ae78e91d2p-6
3580=0x1.92a871cf50f37p-5
3584=0x1.81edb7aa05be4p-6
3586=0x1.aeb1c1b829c76p-5
3587=-0x1.8eb28cbf1f75ep-11
3591=-0x1.5677740ce4634p-6
3592=0x1.6b65b8adc5aa5p-5
3593=-0x1.222f58a070513p-7
3594=0x1.8b69d725dc121p-4
3595=-0x1.27056a1be1f28p-7
3596=0x1.08e71691d4c6fp-4
3597=-0x1.3a94c89388874p-14
3600=-0x1.84a119d8d896ap-5
3601=0x1.4ccce0b8d3fc1p-6
3604=-0x1.c804f919954f5p-4
3608=-0x1.0bc2db091b268p-13
3610=-0x1.f8badc08cfcep-7
3614=-0x1.46280887ab184p-4
3616=-0x1.00261813f0f4cp-7
3619=0x1.24420449df0b7p-5
3620=-0x1.b95e663f0f37ap-5
3621=0x1.1388fad805a94p-11
3622=-0x1.42408b89835c9p-6
3625=0x1.27b5fd6396501p-6
3627=0x1.a6062f53198dap-8
3629=0x1.7513df6591523p-5
3631=0x1.0220020289129p-7
3635=0x1.cd6491e2a6b59p-6
3644=0x1.7a3c896cc1364p-6
3645=0x1.e4b12fcfcd3d6p-6
3646=-0x1.d815e38e2b2bcp-8
3647=-0x1.672d9bc202193p-8
3648=-0x1.2f29080f3c041p-7
3650=0x1.4b2ae70c5efdap-9
3656=0x1.7db4462af4f2ep-6
3658=-0x1.5d9e5726c0a07p-6
3659=-0x1.e2cf567c1fd5p-6
3661=0x1.57e88195844b2p-9
3662=0x1.f2f5a8f282a66p-6
3663=-0x1.e6703b0d6a86cp-4
3664=0x1.3d49d85ca14dap-6
3665=0x1.7a88b6e0eac61p-4
3666=-0x1.e5683082b6c13p-4
3667=-0x1.db9130b72f367p-3
3668=0x1.b21ed6e979799p-6
3669=0x1.d3b7e9775825cp-6
3671=0x1.f6fac0f82ef17p-6
3672=0x1.0398dbeee28ccp-12
3675=0x1.d92d47b1c9744p-5
3676=-0x1.20092df4e0e3fp-4
3677=-0x1.067c2a255053fp-3
3678=0x1.492f517b7b026p-5
3679=0x1.26b294c1ad959p-5
3683=-0x1.c4ab85e7df7eap-10
3685=0x1.1ad66a930255dp-8
3686=0x1.c524f99ec222p-6
3687=0x1.e47bc117ddaf7p-14
3688=-0x1.6a2e86dad2edcp-6
3689=-0x1.19bc895016a9ep-6
3690=-0x1.25c8e997a2611p-3
3692=0x1.e98a171e4a381p-3
3693=0x1.26920eb99810ap-6
3694=0x1.7e292a518493dp-6
3695=-0x1.231b33e816337p-5
3697=0x1.0fe4c0fcf2b2ep-3
3698=-0x1.43fce8dead444p-4
3699=-0x1.b2c2d466d9eb6p-5
3700=-0x1.15a7db8704346p-5
3701=0x1.7cc8368729865p-6
3702=0x1.ae4441751788dp-6
3704=-0x1.f68954d793716p-8
3705=-0x1.7c83655e2378bp-5
3707=-0x1.32fdfba150288p-7
3708=0x1.dce66036662d2p-8
3709=0x1.0435b358deacp-6
3710=0x1.a6561719a9deap-11
3711=0x1.69b65fee4c68bp-4
3716=-0x1.8faacb1da11acp-5
3718=-0x1.8166635be51f8p-12
3719=0x1.7e8ef216f02cap-7
3720=-0x1.4a850189a88f9p-6
3721=0x1.11b68a230a60ep-4
3725=0x1.387f0d4a1fb9p-5
3726=-0x1.4b1f6b9fdb777p-5
3727=0x1.54add53fd40ffp-5
3728=-0x1.2a230d7864a82p-9
3730=-0x1.a9691ca366ff2p-11
3731=0x1.550ce7276d775p-3
3732=0x1.60bf4ca8e2e91p-5
3735=-0x1.a75bd02a45ed6p-7
3737=0x1.cff5f9fe6ed14p-8
3738=-0x1.60e7c7e284f85p-4
3740=-0x1.b8184964c7cd2p-6
3741=0x1.47fb5a1ae08f6p-6
3744=0x1.4df84398e9c35p-5
3745=0x1.b3235c0c16448p-9
3746=0x1.7de4d4fc3b944p-6
3747=-0x1.fd884d32d999p-6
3748=-0x1.e48d70e3a7bb6p-6
3750=0x1.06e5df33f941ep-6
3752=-0x1.bcd934096b6cap-10
3753=0x1.0bb152cb85ed8p-8
3756=0x1.4fefb245784ep-5
3759=-0x1.5dba10ee619c8p-11
3760=0x1.157745a7b5229p-9
3761=-0x1.19fd4238f55e2p-5
3762=-0x1.e4a4dde959c6ap-6
3763=0x1.c1b7292a0fb7ep-8
3764=0x1.615bc5e37254bp-8
3765=0x1.015e25ee72be8p-5
3766=0x1.08191c5658964p-4
3768=-0x1.292c83f5c1982p-10
3770=0x1.52b2468ecb121p-9
3771=-0x1.86bcced2b9016p-7
3772=-0x1.be68211abcce4p-3
3773=0x1.2301b40ead042p-4
3776=0x1.90de6f374d45fp-5
3777=0x1.b382a436e7b4ap-4
3779=-0x1.5bfa3ada8960fp-5
3781=0x1.63aef0f388e01p-7
3783=-0x1.08c8ac9a33cc6p-2
3785=0x1.0372d7134771bp-5
3787=-0x1.4366ff6d9c1a6p-6
3788=-0x1.920929e67685ep-5
3789=0x1.10e46fb72d03ep-4
3790=0x1.f1095ffe885c9p-8
3796=0x1.c58d0f0ab7fcp-8
3797=0x1.dfc2210c832a5p-12
3798=0x1.9971b7e23d24ep-13
3799=-0x1.5b7759df0649p-13
3800=0x1.2ba9d1eeef73bp-3
3802=-0x1.65baf3c59895p-4
3804=-0x1.8a96909320b2dp-4
3805=0x1.83168bef518d9p-4
3806=-0x1.6936ac3e7715bp-4
3807=-0x1.61c5ddd2ed29ep-5
3808=0x1.595aab651ccf2p-4
3809=0x1.437584d9b397ap-3
3810=-0x1.45ea7ab6a674cp-7
3812=0x1.1af741936528dp-8
3813=-0x1.22e5e49672ef4p-11
3815=-0x1.79a48f2731529p-5
3816=0x1.59fab7bedca31p-9
3817=-0x1.b28faeb3fbf52p-8
3818=0x1.2e6443de714fdp-5
3819=-0x1.ca2b61b5885bp-15
3820=0x1.3ec54b7721944p-10
3821=0x1.b7b8dcf10464ep-5
3822=0x1.4fd4cd39b2688p-8
3825=-0x1.f26fdebc22942p-6
3826=-0x1.3931887fe46d6p-6
3828=0x1.60502d787a8fap-4
3831=0x1.e702cc8727278p-10
3832=0x1.a30d9c13ebe5ap-9
3834=-0x1.3bf640c33879cp-4
3835=-0x1.9be49cf15d5e8p-7
3837=0x1.a14dac484b2b4p-5
3838=0x1.b4b05cc5d3aap-4
3840=-0x1.266942823145fp-6
3841=0x1.5a7265dc94898p-7
3844=-0x1.0382de36669fcp-5
3845=0x1.0ea10521f594p-7
3847=0x1.dcddff34e204ap-6
3848=0x1.23df8efe9f972p-6
3850=0x1.a3d7e327cc61bp-9
3851=0x1.fb212bea6d4f8p-10
3852=0x1.c767d2430cae4p-4
3853=-0x1.976f820f7d7e6p-6
3858=0x1.01710d116e89ap-8
3860=-0x1.9514d070062c2p-8
3864=0x1.beb3271bb7294p-5
3865=0x1.3df145c271ecep-5
3866=0x1.3163b6b1604ccp-6
3867=-0x1.b8a23dc5b3c4p-6
3868=-0x1.15fd2d9163e48p-2
3875=0x1.8814d5bcfbdc8p-5
3876=0x1.46024da199efep-7
3877=-0x1.2a56703b64d5cp-8
3878=-0x1.ad26cd4c5e89ap-6
3879=0x1.6f4e16329e4d7p-5
3880=0x1.9ba00ab3c62e8p-8
3883=-0x1.15a4e6148dadcp-7
3885=-0x1.d2a63cec4c4a2p-8
3886=-0x1.1e772f06dd44fp-7
3887=0x1.978fb0094a28dp-11
3888=0x1.6c18c7a183a2ep-8
3889=0x1.e266715e58a02p-7
3890=0x1.0b9cbb2a11146p-9
3891=0x1.edd9783e26b9p-4
3893=-0x1.79596eebfc1ecp-9
3895=-0x1.3374ca3a25032p-6
3897=-0x1.30310d155634p-19
3898=0x1.34384ddd89e8p-4
3901=0x1.3ef8152eac578p-9
3902=-0x1.3427a1349069ep-5
3904=-0x1.2d9fdc65bb31ap-5
3905=0x1.734a271f6a88dp-5
3906=-0x1.15c023c875cp-5
3907=0x1.c9826a943daaep-5
3908=0x1.3caed7b26c833p-5
3910=-0x1.a1078067a3495p-6
3912=0x1.ad2004bfa0382p-5
3914=0x1.e9f532823a7f1p-8
3915=0x1.39d677be85d2fp-5
3916=-0x1.7b84f72083ec9p-5
3918=-0x1.4598a9596e339p-8
3920=0x1.039f5e4fad6b9p-8
3923=0x1.56899a9d8cd21p-6
3924=0x1.66ad7a93b0b65p-5
3925=0x1.b1c8e4ec290d6p-5
3926=-0x1.50b3fd568245bp-6
3927=-0x1.0bf7e9d075d5dp-4
3928=-0x1.de58d815161d5p-6
3929=0x1.10ce96c01b069p-7
3931=0x1.4de0f477527e8p-5
3932=0x1.baabc04af93f9p-7
3933=-0x1.1f582181ffe9p-5
3934=-0x1.1abc6833ff1c4p-5
3935=0x1.67650bab9f0d4p-5
3937=-0x1.b4ec48e9b2beap-6
3938=-0x1.2a776035cb026p-10
3939=0x1.cd0f0cf7a9412p-8
3940=0x1.21c93920d5c08p-8
3942=0x1.945dab695f54fp-5
3943=0x1.553ce3569d099p-7
3945=-0x1.f6e5864590f5fp-4
3946=-0x1.52615162be55ap-5
3947=0x1.3f43f4b69fba4p-5
3948=0x1.46a735137247p-9
3949=-0x1.8e740f1a7b409p-8
3952=0x1.1f7a8206436dep-5
3955=-0x1.d9c07df7988bp-7
3956=0x1.b64aa31e7d558p-8
3957=0x1.d398057cff5e8p-8
3959=0x1.d9dfd67369f0ap-10
3960=0x1.a53899aeb5ca8p-12
3961=0x1.222e614738f0dp-10
3962=-0x1.31f66b368b434p-5
3963=-0x1.1661604768a73p-6
3965=-0x1.956911ed387c6p-11
3966=-0x1.c6dca832acc68p-5
3967=0x1.0f29c6653666ap-7
3968=0x1.2509316587925p-6
3969=0x1.e0eb58cafb815p-5
3970=0x1.56eef43bc1b6dp-3
3971=0x1.0e5a55ca79bd1p-5
3972=-0x1.510146f875b68p-8
3973=-0x1.f4b6d0f07e1d2p-3
3974=-0x1.26da8907cb135p-4
3975=0x1.b9b3e6a2cfc62p-4
3976=-0x1.ca0577673cee8p-5
3977=-0x1.b404b63c99f29p-4
3978=0x1.7932f32c98437p-4
3979=0x1.397e0009edf57p-4
3981=0x1.653443981385dp-3
3983=-0x1.996f1e34499p-8
3985=-0x1.9ad8297c65feep-6
3988=0x1.96ce54d2c5cfcp-4
3989=-0x1.0a463f70d7a27p-5
3992=-0x1.5277269d814dp-8
3996=-0x1.6514589d6e3cfp-5
3997=0x1.5e693357adacep-6
3998=0x1.78d79328ccf27p-4
4001=0x1.1e73fa9be2a4ep-10
4003=-0x1.c53872f2a1327p-6
4005=0x1.3a76bae3b102dp-4
4006=-0x1.b47c07388c5c8p-4
4007=0x1.ab67bd9d35785p-6
4008=0x1.9e95d5736de29p-5
4011=0x1.3cf61ee457094p-6
4012=0x1.2fd80259f2c22p-5
4013=-0x1.14a5a1ad0b8afp-6
4015=0x1.2fe625cf5ab65p-5
4016=-0x1.056a7ecc48ad1p-4
4017=0x1.ce42471f3b8c5p-8
4019=-0x1.3be98a7da8098p-12
4020=-0x1.f7375f02e5ccdp-4
4021=0x1.3492c36054a62p-6
4022=0x1.543bf69cffbdfp-7
4025=0x1.cca7371f9b89dp-5
4030=-0x1.8bc48f6e2b19cp-4
4031=0x1.ee98742cbe49cp-7
4033=0x1.4e9085a1daa4ap-12
4035=-0x1.ba15daf069728p-12
4038=-0x1.964e88b4284ebp-6
4039=0x1.2a34ded6ab4c2p-5
4040=0x1.dd5afe40d16dep-9
4041=0x1.28cac7f794434p-4
4042=0x1.79f471d955b84p-9
4043=0x1.ff3de610d0d5fp-6
4045=0x1.297b417f9b09ap-5
4046=-0x1.2549240239f6p-5
4047=-0x1.4c44f4b57d583p-4
4048=-0x1.ef3223f5a814p-4
4049=-0x1.6a949b20146cfp-8
4050=0x1.3a9d07f378e2dp-10
4053=0x1.10ad4efa29ba8p-4
4055=-0x1.c1dbbe0132e76p-7
4058=-0x1.bc6cc8e100e8p-7
4059=0x1.0ba4048efc394p-7
4062=0x1.4e628752c82abp-5
4064=0x1.d9b32b567b97p-11
4066=-0x1.5e6a80814089dp-4
4067=0x1.6c36d6107f856p-4
4068=-0x1.1df4d10c1341dp-4
4070=-0x1.1310d29ec7294p-13
4071=0x1.3a43ac3f3e381p-6
4072=0x1.62a9b998123cep-5
4074=0x1.cb66487c4df31p-6
4075=-0x1.711e53b503dacp-4
4076=-0x1.2fdf7509fc57cp-4
4077=0x1.f72a2c5922a9bp-5
4078=-0x1.09a9f9f21c203p-3
4080=0x1.74159c158caf4p-8
4081=0x1.1864e3e37b99fp-6
4082=0x1.92c3ef5ac37b8p-6
4085=-0x1.465580f274cc2p-9
4087=0x1.28f9d9c401daap-10
4088=-0x1.66dfff98bd6d1p-4
4089=-0x1.0b59c366f62cp-17
4090=0x1.23a2ce44665d4p-8
4092=0x1.23a120faa6dbep-5
4095=-0x1.59544565a5f11p-7
4096=-0x1.9a41b977c1f04p-4
4097=0x1.47194bd2a54d7p-5
4098=-0x1.1f36a992cd3fep-10
4100=0x1.2b3444a97d7a4p-8
4101=0x1.2fdbd3cf98751p-5
4102=-0x1.1c0a65aa7c151p-5
4103=-0x1.4aa4372b50cp-7
4106=-0x1.4fa11821740fep-4
4107=0x1.22fd6db4699f6p-5
4108=-0x1.e4496cdcf3765p-7
4109=0x1.c0bf881421707p-5
4110=-0x1.2edc1b8fc1d66p-6
4112=0x1.02b4b0df2eae4p-9
4114=-0x1.60053705abb8ep-6
4115=0x1.3824d99b1942ep-6
4117=0x1.110bd3d57f8f8p-4
4118=-0x1.862167bb704b3p-3
4119=0x1.2457b17395f02p-3
4120=-0x1.1832fb1d12cb8p-4
4121=0x1.f69adbf5c0674p-7
4122=0x1.7a52f88d536f2p-5
4124=-0x1.1206d55dd7f93p-6
4125=0x1.910ef0fa1d86cp-5
4126=-0x1.33019ff4d71d4p-4
4129=0x1.5e8c7c52acfe3p-10
4132=0x1.3e92b65a2a529p-6
4134=-0x1.1f169ee4b7fc6p-7
4137=0x1.7f2f81288c697p-12
4139=-0x1.5db95c320217ep-8
4140=-0x1.b347729972b8fp-5
4142=0x1.84dd1b7b576e9p-8
4143=-0x1.b1aa99fa074c8p-7
4146=0x1.4d8082fb3602ap-5
4148=0x1.7742cbbc3c6c2p-8
4154=-0x1.788a0f5c22b01p-5
4156=0x1.0b44a1f3ea3b5p-5
4158=0x1.4f507c8a5686p-4
4159=0x1.b2111fc5d5b16p-10
4162=0x1.e94c30b0f9e35p-6
4163=0x1.8d9bdd735c7b3p-6
4164=0x1.f2ef26ffd2f6dp-6
4165=-0x1.53e119ddb6d54p-5
4166=-0x1.2d8662d15173bp-4
4167=0x1.0499d8497791cp-4
4168=-0x1.07d9fd40243e8p-4
4170=-0x1.372e2c8039045p-5
4171=0x1.120b11d276262p-6
4172=0x1.96f476a7588e1p-6
4174=0x1.05f81aa333dbap-5
4175=-0x1.1a4cf947f0d6cp-9
4176=-0x1.37ca47cacabe7p-4
4177=0x1.6bf53aef26b7ep-10
4178=-0x1.905265467fcbp-13
4179=-0x1.491b194a5bed8p-12
4180=0x1.268118eeb235fp-9
4181=0x1.8a7ee913dfb1cp-6
4182=0x1.960e45ad27d9p-6
4184=0x1.eb0a332a0a11p-11
4185=-0x1.327b579d79218p-5
4186=-0x1.7bcaca1367dfdp-4
4187=0x1.92c8640b2c9p-7
4188=-0x1.b87161eb41d8bp-3
4189=0x1.b642b4cbdd4bcp-10
4190=0x1.8c0aa72e38256p-3
4191=0x1.28e1ec8a114eep-4
4192=-0x1.54c999a3d633ep-3
4193=-0x1.0043b24478e88p-3
4194=-0x1.5eca82bda402dp-5
4197=-0x1.234e0f584375ap-7
4199=0x1.59cb9ce88d246p-4
4200=0x1.5d280496d4da5p-3
4201=0x1.2b2f54e6fd21fp-4
4202=-0x1.be32a3e87ffe4p-10
4203=-0x1.b25292d56818p-10
4204=-0x1.49203d763ff2cp-4
4205=0x1.baa3f3f72eca5p-5
4206=-0x1.426c444e32cafp-6
4207=-0x1.e70eb57dc4ab9p-2
4208=0x1.1d666d9de21b5p-4
4209=0x1.53a57b83513acp-4
4210=0x1.4028887c665e8p-6
4211=-0x1.d43f689281c7ep-5
4213=0x1.a878ea0c1103ep-5
4215=0x1.98e9da50b7928p-9
4216=0x1.7864185099afp-6
4218=-0x1.29b4da93cb725p-5
4219=0x1.8bff735b04d9p-9
4220=0x1.92b43146b9643p-6
4222=-0x1.8cd0d9cd8496ep-5
4223=0x1.0b4cad72a3d7p-7
4226=0x1.f260f2ef61c4ap-6
4227=-0x1.7754f8b2adeb3p-5
4228=-0x1.6ceee7b0bcc4cp-6
4229=0x1.4b9bbe5a53eap-7
4230=0x1.1ca4fa6065303p-3
4231=-0x1.a253219c061bfp-8
4232=-0x1.c26160048a81ap-4
4235=-0x1.a65fb7db215fdp-7
4236=0x1.03fa0337326ccp-6
4238=-0x1.db74b6ca246adp-6
4239=0x1.368d4f6ee1d99p-5
4240=0x1.0b37bc6311d03p-5
4248=-0x1.3af15ec3b833ep-3
4252=0x1.8d9440930ff7p-10
4253=-0x1.73b59bc4b7dc1p-11
4255=0x1.7942eb748cb57p-6
4257=0x1.f2340d646f498p-7
4258=-0x1.0125bd43c622dp-3
4260=0x1.7638ade584e8bp-7
4262=0x1.45d800df7338ap-5
4263=-0x1.4b0d60312aa99p-4
4264=-0x1.e9108971e5f09p-5
4265=0x1.51d3bb3649e3ap-4
4268=-0x1.8c6ab1d5d57ep-11
4269=-0x1.36831447c2322p-10
4272=0x1.9eb7d61c495dcp-4
4273=-0x1.376c12df1fba3p-4
4274=-0x1.92e1fd0ff998fp-4
4275=0x1.e6be35d996194p-6
4279=-0x1.2ef3b6ccbefe5p-6
4280=0x1.3809c470478bcp-7
4281=0x1.0236672004581p-9
4282=0x1.54d8bc00519f8p-9
4283=-0x1.3bb6c34a17c4p-3
4284=-0x1.9aa95047b92dbp-3
4290=0x1.66d49480df18cp-8
4292=0x1.74527caafb122p-7
4293=0x1.475f049f3e106p-4
4295=-0x1.253b3c35e438fp-4
4296=-0x1.79535c6e8213bp-4
4297=0x1.1aef697b4ae96p-5
4298=-0x1.5717eb34b2495p-4
4301=0x1.068f4112c3088p-9
4306=-0x1.3ab3389807c42p-4
4307=0x1.17e7981826ba3p-3
4308=-0x1.49de23436f092p-7
4309=0x1.191896bfdd96fp-7
4310=0x1.390e22a632c3bp-5
4315=-0x1.6756c9f0dd27cp-8
4318=-0x1.a4a3d55559f32p-12
4319=0x1.b5540ee475deep-4
4320=0x1.02add639f50e1p-3
4321=0x1.0cd40f3967e0ep-4
4323=-0x1.6766b9fd07768p-4
4324=-0x1.183e96f546178p-6
4326=-0x1.a81b1952a3282p-6
4328=-0x1.1e34e82daa4c6p-6
4329=0x1.7bd0ea46f5991p-4
4330=0x1.674a145ddbee4p-5
4331=0x1.3ef9d1ab11d78p-11
4332=-0x1.9ce9cabec0194p-4
4334=-0x1.5c71863f15e06p-5
4335=0x1.ac51f6f41df2ap-5
4337=-0x1.624de575be1fep-3
4338=0x1.574a9c49c08d6p-11
4339=0x1.48586797da93dp-2
4340=0x1.856766732e4bdp-11
4342=0x1.f033b435a8d9cp-12
4344=0x1.9e059a2b1aa75p-6
4347=-0x1.0fd571b62dd66p-4
4348=0x1.e52a456165d8cp-6
4349=-0x1.24ece3d180275p-5
4351=0x1.d16114667f9f1p-3
4354=0x1.506b71afa7721p-7
4355=-0x1.31f82703ad4cep-5
4356=-0x1.710be210aad29p-5
4358=0x1.9f46de6637635p-3
4360=-0x1.09d20a7b6e913p-4
4361=0x1.67eeb9e4be1ddp-2
4362=-0x1.2e7233fbe87b1p-3
4368=0x1.00578d65349fdp-3
4369=-0x1.523773db4e409p-7
4370=0x1.166e3bf192ffep-8
4371=-0x1.520f6c5f2b6d6p-6
4372=-0x1.c2f9b0dccf885p-6
4376=0x1.197c833d6f1bp-12
4378=-0x1.c61d443212476p-11
4379=0x1.9fa39d3ee3ec8p-7
4380=0x1.d0f4b54db0c4p-15
4381=-0x1.aa02f074f8842p-11
4382=-0x1.9ddcf3b3667c5p-4
4385=0x1.5df1c970f1bdbp-6
4386=0x1.1d8e673fa9df6p-6
4388=-0x1.4ef7bf1f30b6fp-8
4389=0x1.6753248c22c72p-6
4395=0x1.e2e7b6bd163cap-6
4397=-0x1.4e660f755ec7ep-7
4398=-0x1.4efd34e4cd857p-2
4399=0x1.7019fee3bbf51p-4
4402=0x1.a26e766cd18d8p-12
4403=-0x1.0cc508019628p-9
4405=0x1.0749e9aeb6bf3p-5
4406=0x1.cb2da0fff395ep-8
4408=-0x1.035b5d2890393p-4
4410=-0x1.93bad72a1334p-6
4412=0x1.34b94cef9d4c1p-5
4413=-0x1.da4ecd4adf37fp-6
4414=-0x1.13bdb1ef1c246p-6
4415=0x1.ca5ddb0a2e6ccp-6
4416=0x1.143bbf263a861p-6
4417=0x1.5d3bbcb0677abp-5
4418=-0x1.f6ffac98216b4p-5
4420=-0x1.33a931fa2cafap-8
4421=0x1.d297855c1437bp-6
4422=0x1.f12ca66f7053p-5
4423=-0x1.1eac725ddf32ap-8
4424=-0x1.b0432750bcf45p-4
4425=0x1.d51e7cf99d1p-13
4426=0x1.90ced6c32e8d4p-8
4427=0x1.8d0ca556ffa21p-6
4428=-0x1.3f4b28a8d4ep-13
4431=0x1.0bc8f23bbb2c9p-5
4432=0x1.c67a60f704a62p-3
4433=-0x1.1c082954667afp-6
4434=-0x1.ba6a46ce75808p-9
4435=-0x1.bcda4a11ad2e5p-7
4436=0x1.48f4c7ddbd13cp-7
4437=-0x1.33c17aeb167e3p-7
4446=0x1.5fcffad6b50bdp-7
4447=0x1.8552f397b19ap-16
4448=0x1.134d1f164ce74p-4
4449=0x1.1d4220247e28dp-10
4451=-0x1.a218f34eabe47p-6
4452=-0x1.4148083f0efdap-5
4455=0x1.50933c6938646p-4
4456=0x1.30e603beb2b17p-4
4458=0x1.35f14dd93afe5p-4
4460=0x1.df35b6172329fp-10
4462=-0x1.17696c69d686cp-6
4463=-0x1.dcb5869b1e862p-11
4466=-0x1.9fe7e601a42fep-5
4469=0x1.cd144d2ace8aep-4
4470=0x1.a8d5575bf6a26p-7
4471=0x1.efa7aa4039ce7p-4
4472=-0x1.b643865457f83p-4
4473=-0x1.13e3c42469d58p-11
4474=-0x1.d7899aca6f40cp-7
4475=0x1.0ca0746c0d08dp-5
4476=-0x1.36eb12e3ce5b2p-5
4477=-0x1.19502d060ecc3p-7
4479=0x1.3d688a870d56dp-3
4481=0x1.17422273a08d8p-4
4483=-0x1.42fbc2d3de93ep-7
4487=-0x1.08881a48b128bp-3
4488=0x1.9eaa8d66dfb2bp-5
4489=0x1.3e7f5ba2a2e54p-4
4490=-0x1.1121988d91cc6p-4
4491=0x1.1c26e4faf33e8p-4
4492=-0x1.19104bb351bbbp-5
4493=0x1.3347c471fbec6p-12
4494=0x1.440a11027ae91p-3
4495=-0x1.033fc1671c00bp-9
4497=-0x1.2e7da163241d8p-5
4498=0x1.0691754535ae6p-3
4500=-0x1.7f3bf6729f9a9p-6
4502=-0x1.ec364554a7761p-4
4504=0x1.2a51609edf66dp-5
4506=-0x1.82a625f5cc879p-5
4507=0x1.ba46d2d5f2c48p-7
4508=0x1.2dd5c7110b149p-3
4510=-0x1.8d1955c7b4bbap-6
4511=0x1.17e2971eb390dp-5
4513=-0x1.9c7a7a64e82fap-7
4515=0x1.06a2ba86ac28p-6
4518=0x1.a756cbba475b6p-5
4519=-0x1.9357477dbcc65p-6
4520=-0x1.25ad62d101e48p-10
4525=0x1.0443a3fcb8a2cp-9
4528=-0x1.3b22ee15c4254p-12
4529=0x1.65a3371bd257cp-6
4530=-0x1.21142d5021fc5p-7
4533=-0x1.0968277d16e6dp-10
4535=0x1.d077689bc1deep-7
4539=0x1.97e677134aa54p-10
4541=0x1.1477733fcedc9p-6
4542=0x1.ac8e734ac7d4ep-8
4543=-0x1.a3949bf5ac346p-4
4546=0x1.9bfb84244a2c3p-7
4547=0x1.6b7e663c1f029p-4
4548=-0x1.40c5c76fea1bcp-4
4549=0x1.97a4f9d5caadep-6
4551=0x1.1f3c6d2590b37p-5
4552=0x1.f99f9c92e33c3p-5
4553=-0x1.185f9a16d3962p-8
4554=-0x1.48c1209710c1ap-5
4555=-0x1.9294d8c1939adp-6
4556=-0x1.d0ce428f3e5b6p-10
4557=0x1.52e5586f69019p-6
4558=-0x1.827d70bd73231p-10
4559=0x1.8654ad435eb5ap-5
4562=-0x1.745233ba498afp-5
4567=0x1.cc6e9867b3d8p-4
4575=0x1.5eff609a7da9cp-5
4578=0x1.0c2bee0e3a30dp-10
4580=-0x1.e4d297af35fep-7
4582=-0x1.02f81c7b3f6c4p-4
4583=-0x1.c9a5fb4779932p-8
4584=0x1.e51914fb47c3ep-7
4585=0x1.cfd0e26abfdf6p-5
4586=0x1.753fd843fae48p-5
4588=0x1.18e074a9f1927p-7
4591=-0x1.5dd98370e8d3cp-4
4592=0x1.0e3ed45c7ca3dp-4
4596=0x1.02dc9143aa67ap-5
4597=-0x1.d49c1edccebcbp-7
4598=0x1.df457197131eap-9
4600=0x1.5d73b8ba4830cp-8
4601=0x1.376bbaec563fdp-4
4602=-0x1.658711b4af065p-6
4606=-0x1.ba034be986203p-6
4607=-0x1.ddc630aebb43bp-5
4608=0x1.21c1f74e395abp-5
4610=0x1.efa85fb0ffc9dp-11
4612=-0x1.53959b19f7a3cp-4
4614=0x1.9b4add4def9c7p-5
4615=-0x1.7f341eb60a9aap-6
4617=-0x1.237cd66fb8fb2p-5
4618=0x1.6be55bec1f22p-5
4619=0x1.442bcf77a0466p-6
4620=-0x1.83336c30118aep-5
4622=-0x1.b9a69af78eaaap-8
4624=0x1.0c9f956f888ebp-3
4626=-0x1.b8c521c920c2ep-6
4627=-0x1.c9e6c554161bdp-4
4628=0x1.0ff64ac2158e9p-3
4630=-0x1.a567bf3ae18e8p-2
4631=0x1.a9a9373fd198p-6
4632=-0x1.4d6f1f5c2dc81p-6
4634=0x1.a5c93eb4f8fcbp-5
4638=0x1.8e127e8c89df2p-6
4639=0x1.c3110dee8fa4dp-8
4640=-0x1.1a5fe31e46d3dp-5
4642=0x1.51810e7a2cdfap-5
4644=-0x1.2aeba762f4e2p-9
4645=-0x1.fdbb4f1fa280fp-6
4648=0x1.4f01aef6191ap-6
4650=-0x1.7d8e726322344p-6
4651=0x1.5c7805bf54d14p-5
4652=0x1.29c5dd6467988p-7
4653=-0x1.fe0903cf5f1d2p-8
4655=-0x1.851936d271cc6p-5
4657=0x1.13b45c7f647fdp-4
4658=-0x1.7a1bce439ad44p-12
4659=0x1.a99fec76f8718p-6
4660=-0x1.3f82e9aad205cp-8
4661=0x1.19b1a0b149e26p-4
4662=0x1.0011811869c43p-5
4663=-0x1.17cf5b78460bbp-7
4665=-0x1.b4b2a35f6c2e1p-3
4667=0x1.c7399d7823c4bp-4
4669=0x1.143616a96360ap-5
4671=0x1.11132da6a6af8p-3
4675=-0x1.5564551085ef9p-4
4677=0x1.c87f55a70dccap-5
4678=-0x1.93913de7ff9abp-6
4679=0x1.c90d51e29fb85p-4
4680=-0x1.6bd53f6896729p-5
4681=-0x1.bbcec172288afp-11
4682=-0x1.092a4ddfb709p-3
4685=0x1.b7559c6d164ep-6
4686=-0x1.a8222910f8d6dp-9
4687=0x1.4df1429dfa7dfp-4
4689=0x1.72feb3d0210e5p-5
4690=-0x1.f65842b4df38p-4
4691=-0x1.5f2e62fcfcd82p-9
4692=-0x1.f90ddaa7bea08p-5
4697=0x1.34fbee09e537fp-4
4699=0x1.04168088d74bp-11
4700=-0x1.8d4862c0ef6aep-3
4701=-0x1.f7d0c33305acap-8
4702=-0x1.8609a4a63a6f4p-11
4704=0x1.a217aa93f88cap-7
4705=0x1.0473b9db6ed5ep-4
4706=0x1.7b74c42983ca8p-7
4708=0x1.0601f3db70513p-4
4710=-0x1.8975aaca0bd97p-4
4711=-0x1.c8712274bdcffp-9
4716=0x1.d71e1d5f50925p-6
4720=-0x1.c8eb9cf79c6c1p-4
4721=-0x1.f17673deca0b4p-5
4722=0x1.ebd50479ed07ep-8
4725=0x1.3c98bd605196fp-6
4726=0x1.4d4e564336447p-6
4728=0x1.633df4be42e9ap-7
4729=-0x1.35fffadbc067cp-7
4730=-0x1.4678f166997a4p-5
4733=-0x1.8e768364a6436p-10
4735=-0x1.db85f609a9084p-4
4738=0x1.7ce47ab390d64p-7
4739=0x1.fb78ea104842dp-4
4740=-0x1.8ef1ed51f0852p-5
4741=0x1.199ae3ea405bcp-4
4745=-0x1.1b30ca6d1b0b2p-3
4747=0x1.d7a1c7d48cacep-7
4749=0x1.47c74d84b11d6p-4
4750=-0x1.354dd71e56eb3p-5
4751=0x1.39e5d65196a08p-3
4753=-0x1.affb6e48c48a9p-8
4755=-0x1.c3eaa6b8acd7bp-4
4757=0x1.46e98d32a418ep-13
4759=0x1.725ee072d4002p-5
4760=-0x1.5431c4a85db6ep-6
4762=-0x1.ec7cfdb4491f2p-5
4765=-0x1.06af260c3b5ep-5
4767=0x1.4c7507e312a65p-5
4769=0x1.a04d87a86ccc1p-4
4771=0x1.682d390cbc92ap-11
4772=-0x1.2a0aba226ecf3p-4
4775=-0x1.4dcd416c7ad6p-10
4777=0x1.d8e158b3907a7p-5
4778=-0x1.6aa094741ce78p-9
4779=0x1.4bf45437502a6p-3
4780=-0x1.512b39ea4309p-6
4781=0x1.630a0ec4d2066p-12
4782=-0x1.77ad074af044p-5
4784=-0x1.ae186d66781b3p-11
4785=0x1.553b952cece1p-6
4787=0x1.79a71156dfb3dp-4
4789=0x1.c7885955e37bfp-6
4790=-0x1.236573516583ap-4
4795=-0x1.9168d62e4c61cp-10
4799=0x1.e68ccb1c68a3cp-7
4800=-0x1.00275479a9efep-3
4801=-0x1.6201ad9b390e2p-6
4802=0x1.72affa88bb182p-6
4805=0x1.183833894c2eep-5
4806=0x1.3ed3ab11b23c5p-5
4807=0x1.cd6f8ea616aaep-8
4809=0x1.9f00d37320f77p-13
4810=-0x1.96320d3ad8a6cp-5
4812=-0x1.19c330a26ccfdp-4
4813=0x1.775b72e8491e7p-5
4814=0x1.2c8de1e8f6a0ap-4
4815=0x1.d837551310972p-7
4816=-0x1.2676c5bf9efb4p-6
4817=-0x1.2d1e347f955e5p-7
4818=0x1.5753087a6d788p-8
4819=0x1.7215a2946ae0cp-5
4820=-0x1.8d2299246618ap-5
4824=0x1.ffea137697becp-5
4826=-0x1.b8f883c7b843bp-8
4829=0x1.0082380f65332p-6
4830=0x1.02de7de6e69dfp-9
4832=0x1.c0e9fe23da71ep-4
4833=-0x1.3633d59b702d5p-6
4835=-0x1.269ec17df62a4p-4
4836=0x1.34d89c1aebc1cp-5
4838=-0x1.10f4a1bf81a06p-8
4840=0x1.0bc930e75ba8cp-3
4842=0x1.bcdde0898daap-4
4843=-0x1.7a0f89c7c9e31p-10
4844=-0x1.8674fa12ed08ap-6
4845=-0x1.6a814746ced86p-7
4847=0x1.55da4d3b31401p-6
4848=-0x1.bc627d4e5efbcp-10
4849=-0x1.e0a60463b82ebp-5
4850=0x1.94be0f8a55956p-11
4851=0x1.6edd6e3df2c54p-5
4856=-0x1.4bf234bf19c5dp-3
4857=-0x1.60ae4d196cffdp-3
4859=0x1.89e1e5146a70dp-5
4861=0x1.52718675c83e8p-5
4862=-0x1.46e26d836d6p-8
4864=0x1.63fa82b3ef70fp-4
4865=-0x1.cd5f331beb0b6p-3
4868=0x1.6f942fb5d056ap-5
4869=0x1.efbf51bf0e31ap-6
4870=-0x1.45827a89ad8a8p-6
4871=0x1.e3fe876b7864bp-3
4873=0x1.c5bc9983bfbbcp-5
4875=-0x1.d6bc6ad99181ep-3
4876=-0x1.41732a9dfa732p-4
4879=0x1.4f21c03669517p-6
4882=-0x1.5b2461964cb36p-4
4884=0x1.c3ea0dfabe031p-5
4885=-0x1.a7405f4e1ec85p-3
4886=-0x1.56694e88d1a34p-6
4887=0x1.46b98950b4babp-5
4888=0x1.9c45d37e10e53p-4
4889=0x1.77155a60ff9c2p-4
4890=-0x1.fdf29240ee128p-5
4891=0x1.2bf0d7dbd8733p-4
4892=-0x1.45ee7d2b0239cp-3
4893=-0x1.d447d86c3996p-18
4894=0x1.1620e6d63c435p-4
4895=-0x1.25497fd526322p-3
4896=-0x1.23c7becc4ae01p-4
4897=0x1.607a5f3451425p-5
4898=0x1.c6a2af525174fp-6
4899=0x1.d0096ae3b249cp-4
4900=-0x1.8900d6fc4fd0ep-4
4901=0x1.bc8e8f036d64ep-9
4902=-0x1.7affb03c8e682p-3
4904=0x1.f4b961a9f028fp-5
4905=-0x1.22ab69d2255c3p-5
4907=0x1.18ac0ba74b139p-4
4908=0x1.dc6db243d3604p-5
4909=0x1.2ccc4e4408fd8p-5
4910=-0x1.e40ee32cc6bf1p-4
4912=-0x1.bc286bd05e764p-9
4917=0x1.350c38c29a613p-4
4918=0x1.82d1df9360798p-6
4919=0x1.995d40c0ec832p-7
4920=-0x1.9ca447f3690d5p-4
4921=-0x1.bc262c2789901p-8
4922=-0x1.3636ad90ab482p-8
4926=0x1.242dd0f7fe17p-7
4927=0x1.a71d77d601b02p-4
4929=0x1.a3dbe6f8bc5c4p-6
4930=-0x1.9d1d093613654p-3
4931=-0x1.fb02c33b3689cp-4
4934=-0x1.5221010a96f1ep-6
4935=0x1.fb28fcffd962fp-7
4936=0x1.4e4e033ace832p-4
4937=0x1.b7d4588b05e2p-8
4938=0x1.a0aaa8f4091dbp-6
4939=0x1.4fbd6106df5ecp-5
4940=-0x1.42d7a6324796fp-4
4943=-0x1.de8db90271526p-11
4944=-0x1.a34113d89193dp-5
4945=0x1.74e9a64198cf7p-4
4946=0x1.e6cdead634accp-7
4947=0x1.66dc5c317ccffp-8
4949=0x1.a3332e84ea01ap-6
4950=-0x1.4c9077ef6dd1bp-3
4951=-0x1.b958ea081c3fdp-7
4952=-0x1.4ff230070169ep-5
4954=0x1.27cee64acd877p-4
4955=0x1.e073e7946d105p-5
4956=-0x1.5f9ee106f12acp-7
4957=0x1.8d3ce06ae560bp-5
4958=-0x1.442877b3152dcp-11
4959=0x1.2bae16204e71bp-5
4960=-0x1.d3a5678a55d89p-4
4962=-0x1.7c9b9680122cap-5
4963=0x1.095c1aa7a3676p-8
4964=0x1.81096b402895cp-4
4965=0x1.e4c79df8a4149p-5
4968=-0x1.2015dcfed7e86p-12
4969=0x1.821867236af3ep-5
4970=0x1.174525d656541p-9
4973=-0x1.5bed75c2048p-12
4974=-0x1.5c9b8921287c6p-2
4975=0x1.168ff51660383p-4
4976=0x1.b6e0621caad71p-6
4977=0x1.a1317ef868f38p-4
4978=-0x1.358cf5bf4182dp-6
4979=-0x1.5ca0c958711cap-6
4980=0x1.03ab9af9066b7p-4
4982=0x1.c0aa839ddf349p-5
4983=-0x1.de811814ee954p-8
4984=-0x1.46b0387404494p-4
4985=0x1.def6a64970c57p-4
4986=0x1.3f210f7199787p-4
4987=-0x1.750302672c531p-9
4988=-0x1.bb8d50fe8f50ep-6
4989=-0x1.2b9ff97e63608p-4
4990=-0x1.a334079722d75p-5
4992=-0x1.183462aed6895p-4
4993=0x1.ce2f64522d0adp-4
4994=0x1.4d932aab30ab5p-5
4995=-0x1.0bd742f43096ep-3
4997=0x1.2b6062268b079p-4
4998=0x1.e775344835addp-5
5000=-0x1.3a6f8fdf4e99p-4
5001=0x1.adf765c77af7bp-12
5002=-0x1.219240374a4fcp-4
5003=0x1.9c292d9b89925p-5
5005=-0x1.94ffe3b300346p-5
5007=0x1.138d2f439ba15p-3
5008=0x1.ea2e596a1ff67p-4
5010=-0x1.9f6b9fc9ac648p-4
5011=-0x1.315c2c81d0f24p-7
5012=-0x1.4f1a57b648bfap-7
5014=-0x1.195a60a2ab384p-7
5016=0x1.73be5ee0da5b9p-6
5019=0x1.b6b418bff98aep-6
5020=-0x1.6b9198433e923p-2
5023=-0x1.4f3a212eea236p-9
5024=-0x1.454b2154b656ap-4
5025=0x1.c01b2f1217dcfp-4
5026=0x1.cbc6381a75f7ap-6
5028=0x1.cb920e01fcbbcp-7
5029=0x1.808c57d5a0f38p-9
5030=-0x1.45636aebfdb69p-4
5031=-0x1.2ba63f45c6ff9p-11
5032=0x1.6fbe225419fcep-7
5033=0x1.2a3b5bd7800f4p-5
5034=-0x1.3093bbbc979dcp-3
5037=0x1.7d4ff943cf186p-6
5038=0x1.e7a35bdaed3ap-8
5039=0x1.3172f0fbf952ap-6
5040=-0x1.46dccf2a09ea9p-5
5041=-0x1.e121b2aa3a06bp-8
5042=0x1.2f5745c5dd87fp-7
5046=-0x1.6d90e664a71f8p-6
5050=-0x1.08f5c7faa516ap-7
5052=0x1.2ef0b29c6f3f6p-5
5053=0x1.3b6a5917c81e5p-3
5054=-0x1.30f8aeb39dbefp-4
5057=-0x1.2dcdd35a9ed5bp-11
5062=0x1.12ac100adfe02p-8
5063=0x1.c2eeb68cbb14ep-4
5064=-0x1.2023733c47abbp-5
5066=-0x1.80a2d887d44f2p-5
5067=-0x1.76bd8be251c59p-4
5069=0x1.8e2869aba25b6p-5
5070=-0x1.677c2d875fa35p-5
5073=0x1.fa333cb3cb6f4p-6
5074=-0x1.d7736419c9c91p-5
5075=0x1.48e6aa4d12fecp-4
5079=0x1.cae4cb2222905p-7
5080=-0x1.e52177d5675eap-7
5081=-0x1.f2b15d687591fp-4
5083=0x1.2506709999baap-5
5084=-0x1.bef7d5ae12893p-4
5085=-0x1.2b9b1961629aep-7
5086=0x1.47f120e10513fp-7
5087=0x1.4f6302e658362p-6
5089=0x1.8453ddcaf5e9ep-5
5090=-0x1.8cdeedccd28bap-5
5098=-0x1.a835b0eed12fep-12
5099=0x1.c18470e5fa618p-5
5101=0x1.67c4e0511fe59p-12
5103=0x1.474caef6bcad4p-5
5104=-0x1.aae6b34672228p-4
5105=0x1.9b1aa2a899ccdp-8
5110=-0x1.1c0784d43b244p-13
5111=0x1.a866be5daa604p-10
5112=0x1.f4e8445076908p-7
5113=0x1.04c8beb6275ffp-3
5114=-0x1.43ffea89e919fp-4
5115=0x1.69abd90c00112p-4
5117=-0x1.d46909ebdece1p-2
5120=-0x1.4db602f4f5849p-4
5122=0x1.0a4e62a0c4d7fp-3
5123=0x1.5ae9a6d3540d2p-5
5124=-0x1.08817a9045a81p-4
5125=0x1.a8331737d1a1p-4
5127=-0x1.6c128bca72cefp-3
5128=0x1.a7e3a35f6a9dap-7
5129=0x1.d441c593dc90ap-8
5132=0x1.12a445ae6ce12p-3
5133=0x1.cfb30c0d86c4p-5
5134=-0x1.67a24aef907ebp-4
5135=0x1.696c9a78ffd09p-4
5136=-0x1.8649680f05c04p-8
5137=-0x1.49eaeb91e36d2p-3
5138=0x1.328e795781b92p-8
5139=0x1.905d5f7ac810bp-6
5140=-0x1.0b255502ba9f9p-4
5142=0x1.81f6141d794dfp-5
5144=-0x1.1b16ea04a127ep-7
5145=0x1.40fd6447e360ep-4
5146=-0x1.5bd0a58540841p-3
5147=-0x1.846520f8fe1bp-9
5148=0x1.01b9bfcdb4588p-5
5149=0x1.0fec4b7fe77cp-5
5150=-0x1.4cde73ed9c6f6p-3
5151=-0x1.1ca1d09df1803p-5
5152=0x1.78b786d48c761p-5
5154=-0x1.f00844788f057p-7
5155=0x1.7bec647e7643fp-6
5156=-0x1.1c397b3fb6101p-3
5157=0x1.6a69401e9ea81p-5
5159=0x1.fb6eb4dfdb026p-4
5160=-0x1.754f1ed9f202bp-4
5161=-0x1.79ca37f27d87cp-4
5162=0x1.d16f75d623413p-6
5163=-0x1.d5c82ae41312ap-7
5164=0x1.f02d5c6866db5p-4
5166=0x1.259356c568f32p-8
5167=-0x1.19111ccd01261p-7
5170=-0x1.1cc02144b8a8p-6
5172=0x1.c39cfafa023b4p-6
5173=0x1.737a97fdb0736p-7
5174=-0x1.78a1de4e6e37fp-4
5175=-0x1.28cc1d57fc8d3p-6
5177=0x1.0f6ba3915bd0cp-10
5179=0x1.b82beb7488936p-5
5185=-0x1.2c1fbb4de5f2bp-5
5186=0x1.e6094f6092834p-4
5188=-0x1.f3b65d303140ap-12
5190=-0x1.0494217e651e4p-3
5192=0x1.dd681f19fc048p-7
5195=-0x1.f6601646675ecp-7
5196=-0x1.9344a9e63cd36p-5
5197=0x1.0673e3d09af3ap-4
5198=0x1.2429bd0d02bf4p-15
5199=0x1.a6280ec22509fp-7
5202=0x1.2bd6eff0e4f49p-9
5204=-0x1.ab4530abe87a1p-6
5205=0x1.347b74d6a3a68p-7
5207=0x1.1c020c2328de3p-7
5208=0x1.c71bb46cbe4cdp-6
5210=0x1.581ce230021fap-4
5213=0x1.2eeb5ae048ed3p-7
5214=-0x1.13cbad3b01cfdp-13
5215=-0x1.d3d592c719016p-7
5216=0x1.cace5ba2c9451p-5
5218=-0x1.b7cd8c4ec7092p-6
5220=0x1.593780e4f46d8p-8
5222=-0x1.e5a8eaef97347p-16
5223=0x1.e5b4370d15036p-12
5224=-0x1.921e174bd88b4p-11
5226=0x1.1a50f3aa6035dp-4
5228=-0x1.4019907b31e37p-5
5230=0x1.5112e9cec9418p-11
5232=-0x1.1b775e9e744fep-12
5233=-0x1.c62823d10f196p-7
5236=0x1.b16625f720b84p-6
5237=0x1.2642db8731b42p-8
5240=0x1.4a7c9b3216e72p-8
5242=-0x1.6cfa1449830aep-6
5245=0x1.5b4f617ac66e7p-3
5247=-0x1.c5380d1732526p-10
5248=-0x1.1c8c2dfe905efp-7
5251=-0x1.3057c43d5a973p-3
5252=-0x1.7538120dcd1f6p-14
5254=0x1.043fa9485eb29p-5
5256=0x1.324d11b484cbcp-5
5260=-0x1.34f14f066c85ap-5
5261=0x1.5618bbd9be1ecp-5
5262=0x1.0d2fa78d155b4p-5
5263=-0x1.f111559e2ab2ap-11
5264=0x1.c685ddb7676bp-8
5265=-0x1.79f45e79763d6p-9
5268=-0x1.50338943295e2p-11
5270=0x1.da1354c7f673ap-9
5271=-0x1.650c38e2c277ap-6
5272=-0x1.0ebe73b40fd58p-13
5273=0x1.5c6d83de68a6cp-4
5276=0x1.114dd99873ed5p-6
5277=0x1.415a7e00632e6p-5
5278=0x1.20d66ed5a0ba3p-4
5279=-0x1.22704ca587528p-5
5280=0x1.da587c6a59d1ap-5
5282=-0x1.6eb1b50522747p-4
5283=-0x1.6cfca3ae8efep-7
5284=-0x1.25c8a1461a0fp-5
5285=0x1.a09d7c9a6e7p-5
5286=-0x1.ee8bbbda34601p-5
5288=0x1.dd4eb8eaf306bp-4
5289=0x1.04c035b323196p-3
5290=0x1.accf89abade76p-9
5291=0x1.01315a9b27cafp-5
5292=0x1.d925e8a05722ap-5
5295=0x1.6baba3f5962c4p-10
5296=-0x1.c24e2056fd16ap-8
5297=0x1.a49bdcc56a86ep-8
5298=-0x1.a7a3345f75b1p-12
5299=-0x1.3554939824adp-10
5301=-0x1.538a6cc0bd6d8p-8
5302=-0x1.b5ac808ec7849p-10
5303=0x1.0e562c630b507p-5
5304=0x1.f3c70bef624cdp-5
5306=0x1.79d83c5f1933cp-6
5310=0x1.dfd47273338eep-11
5311=-0x1.336c4d377ff17p-6
5312=-0x1.02c0217746565p-11
5313=0x1.3a881e268758bp-4
5315=-0x1.a44d240852f4p-6
5316=-0x1.fd970c7ad7dc7p-8
5317=0x1.8a398001060f2p-4
5318=0x1.e525a09dd993ep-7
5319=-0x1.4917a4a5e5c4fp-5
5320=0x1.3c469d2c1881ep-3
5321=0x1.ec1a5aab5e586p-10
5322=-0x1.73e013475e4ep-5
5323=-0x1.d5fe8987d3c0cp-9
5324=-0x1.e082a46010b59p-4
5325=0x1.d68f149ff1827p-5
5326=-0x1.91594de5f8e9fp-5
5327=-0x1.eb27bafe71d84p-5
5328=0x1.50174249968fcp-4
5329=0x1.6a249a690a2efp-4
5330=0x1.313ec5ba115f6p-4
5332=-0x1.dbd15eb25d3bp-10
5333=-0x1.9c7d4522c652p-8
5334=-0x1.5668b09af485bp-3
5335=0x1.15d29bb596285p-4
5336=-0x1.ee0dcd2f6fe5bp-5
5337=-0x1.37f25226a9488p-7
5338=0x1.8f342a5b9c28ep-4
5339=0x1.9e964032edc21p-4
5343=0x1.2c73b1901941cp-7
5345=-0x1.626b3d4b57078p-9
5346=0x1.fe5b3c8fa3418p-5
5347=-0x1.0f78e2b055687p-3
5349=0x1.940aa91f9b90ep-9
5351=0x1.7cc4ebb32da62p-9
5353=-0x1.bbb4f64ecf4f6p-8
5354=0x1.5ea2da029768ap-10
5355=0x1.415d921c996ep-11
5356=-0x1.b70865c446a3cp-8
5357=0x1.2aa375fa904ep-8
5360=0x1.ef7561e53e75bp-11
5362=-0x1.8df140520549cp-11
5363=0x1.152bcab96775bp-6
5364=0x1.0388067088c86p-4
5370=0x1.e3721e0539bf8p-7
5372=-0x1.90905eb7b6898p-12
5373=0x1.25a47a08c57b9p-3
5374=0x1.27ed56ef009aap-7
5375=-0x1.a12a645b1f737p-5
5376=-0x1.7e77380639684p-7
5380=-0x1.3b92926b295d6p-5
5382=0x1.09176e796d1e2p-5
5387=0x1.1eb2b28cc80aap-4
5389=-0x1.471d19e542ee5p-5
